{"w1": {"shape": [10, 784], "dtype": "float64", "data": [[0.8280991800997167, 1.0423722478826831, 0.7455685867908758, -0.4364395854578225, -0.8924887518807557, 0.010449385148522151, -0.23294669868099355, 0.752790125682596, 2.7044983431639382, 0.5475888030947207, -1.2329738564015909, -0.4102571895206529, 0.8416552996512411, -0.6348417889481521, 0.348635604875062, -0.4837952982879413, -1.1843746842473395, 0.07707361249737117, 1.9002155521180446, -0.6930650807612496, 1.8587563506916815, 0.437407122711689, -1.2983072121154886, -0.5512275875351403, -0.6222087369567891, 1.0334613387957052, 0.4466516261774885, -0.7197860940906939, 1.2852705399636835, -0.17851183414018415, -0.31847926962290646, 0.41504751350569435, 0.3141075257590777, 0.1511406319601004, 0.3231148354793053, 0.027413503651804404, -1.580901901973214, -1.2591021389472277, -0.13927692424288304, -0.9017109277964266, 2.3961958367123426, 0.7016453754083242, -0.89474161482523, 0.1824829740030523, 0.98250195092173, -0.841690594749056, 0.8949528327123496, -0.42559709908914073, -0.2665944947777496, 2.3473088644191304, 0.04563482250171828, -0.5220928418696242, -1.1739870946670916, -0.9141762167700042, 0.796425731088273, 0.4264281258909892, -0.13514811295922827, 0.24549780585317713, 0.38718778673049264, -1.8847767219666258, 2.411171058171514, -0.9887362019088913, -1.3301262293144123, -0.36408869427571594, 0.3773207284033795, 0.37371917302749963, -0.9347049383035789, -0.07170425828640867, 0.595186237547768, 1.3396454667246966, 0.8015576035446667, -0.20440904384456388, -1.0993599538499723, 0.4211563177002924, 1.0606776999968142, 0.27526335929057705, 0.09405653875115337, -1.6515984925355511, 0.4486407011590441, 0.3294420943286222, -2.0981641725099482, 0.5483524719610243, 0.9494640866922062, 0.735416547258373, 0.6486101222946578, 0.4045821996904224, 2.5274336578997656, -2.063429432018462, 2.4695847757172293, 1.7677211959625665, 1.765214896170505, 1.1877955817046204, 0.08373988371480148, -0.33788826222882734, -0.4871199150758763, -0.32361521029447826, -0.13123551637356606, 0.8809116084314916, -2.302098493190174, 0.3194745859221609, 1.31678757504673, 1.133926496797962, 0.6311704339337897, 1.1474914295928145, 0.858738773816438, 0.2738292576773197, -0.7752968884867509, -1.9354955382516748, 1.2612427037356584, 1.2160078274035158, -1.6200760036325623, 1.7525895506344136, -0.10748155334703696, -0.8591970977586674, -0.36585976161646405, 0.522661254676957, -0.20389046444574155, 0.7574602762356536, -1.7908926653777046, 0.7797479190850173, 0.3159648836842235, 0.4035973347172306, 0.3543668646691242, 0.08040853591446513, 0.2915673255474942, -0.005755021521654558, -0.18603294529406672, 0.29031764601739624, 0.22298657060732918, -1.0466341928879814, 0.5067227013676854, -0.05018076691425753, 0.4257562249137665, 1.253185182357085, -0.8346345866267452, -0.03412321349816247, -0.26867121140073136, 0.8886427534940643, 1.2317583206210407, -0.9396824594221878, 1.5883248677820985, 0.44270300403627627, 1.6691948280697853, 0.9648092230392192, 0.26319965906396275, -0.6851372064923744, -0.6204968072702631, 0.6482559860336651, 1.8936419742310953, -1.6932172157053331, -1.0468887578626853, 0.1688391371467527, -1.4623670679320866, 0.0024878590793887293, 0.4100825200526346, -0.17800854859404236, -1.577940145137587, 1.068113780641347, -0.4699605226195404, -2.0060059269179167, -0.5034656552384098, 0.3089033961808792, -0.7701938063838675, 2.551315815568035, 0.5099318292313082, 1.9594139810413453, -0.4691336077076519, -1.592009415830729, -1.7088249067999877, 1.0373945200032852, -0.911845690147438, 0.24398959322875588, 0.7734970254290882, 0.9667551894870056, -0.41968254073102296, 0.17588187026971375, 1.7968026618478066, -0.6957903725654542, -0.712505964088837, 0.9689572001884559, -2.4481290116483327, -2.077791110458784, 0.1910764252217032, 2.098753932168965, -0.01770286964314393, 1.56770537070494, 0.33411977118581304, -1.162064871574649, 0.8955657602794935, 0.1347948204571263, -1.3138576564712854, 0.48657949994081456, 0.471302137063787, -0.42195079620307946, -0.79595648716517, -0.8218277720648358, 0.10457103412441474, 1.3781191881746235, 1.2128746512422832, -1.6091078481718213, -1.3472727844611236, -0.7118401463689259, 0.25906642846316874, -0.8561252125342516, -0.9079884354213678, -0.27714738889282897, -0.9856142626783819, -0.06643132047614438, 0.9695838444628381, 0.26310076626309586, 1.3277899576274028, -0.5059685664056982, -0.24776105658524683, -0.3821069355597748, -1.4304554713343378, 0.138196181027488, 1.5305260499556679, -0.14773597260395854, -1.371778627088131, -2.0811625825758577, 0.0782924452587074, -0.24551790212533364, 1.108176237308796, -0.824856117150485, 0.4265190551072982, 0.6639817755576601, -0.3325260252978942, -1.0540624208910516, 0.32623011719024525, 1.1619644364964612, 0.9230030186086172, -0.01911485666462074, -1.0894301398289838, -1.1077156892545772, 0.015964294376874293, -1.4215306703187736, 0.012143603271092594, 0.6225950804053086, -1.0532872211410549, 0.17165190854290185, -0.8878945957204987, 0.9577616961181569, -0.9899577491273379, -1.4288282322851502, -1.062327879813454, 1.66201215841341, 0.772427729940457, -0.8423191551370925, 0.22164258189345765, 0.059539547221002645, -0.14854571228020103, -0.31729580125537293, 0.23789571815168398, -1.5695546650566745, 1.0948989098561792, -0.8525377060091066, 0.1002960016424831, -0.13475553626656853, 1.3503547833071028, 0.24476595242365773, -1.4807322393444968, 0.25126017852004956, 1.4764485125622588, -0.9042971728380963, -0.20560089120194258, -0.2094052572217795, -0.4071732690676427, 3.071373987909539, 2.773593559337812, 1.1560778367069142, 1.6073695630817524, -1.4395813784354752, 0.7484433458384586, -0.49381456336424445, 0.783021592615107, -0.25729752824286584, -0.6714853997687108, -0.08182977965446928, 1.1375961202299123, -1.572415844575364, 0.46291801469252514, -1.330982214703042, 0.4750318928508443, -1.1608814165808972, 0.5261013595985381, -0.19481921086321863, 1.3348296126493289, -1.2626485719823128, 0.024472012210083653, -0.3160632706985529, -0.4630266094580355, -1.0504396120411648, -1.6376074016541715, 1.383791608685686, -0.18090165621811513, 1.3392232041029768, 0.7213738287672709, -0.9471302248528178, 1.9878188414555582, 0.007522999670184805, -1.2180477157784126, -0.9733823754982992, 0.3611256319831175, -0.380564424247202, 0.6869952741629921, 1.4760169776129484, -0.5325619698424646, -0.12684470071625123, -1.8978925299662333, 2.1588305423311285, -0.695304729860418, -0.6703457978071832, 0.042825615122078095, -2.3182557284883467, 1.8024372866251097, 0.7681767702793798, 1.7207320666511603, -1.1904333982360351, 1.0688889591750992, -0.7111027014367186, -0.009653662958676552, -0.39035809024957496, 1.2267179596139854, -0.05696992047390556, 1.745925111108008, -0.9316809556283828, -1.9024673611583827, 1.0810799660639976, 0.6682433331681705, 0.08967649227498069, -1.2039414892434162, -1.0429296747607306, -0.2570734565641546, -1.252444417001914, 1.4716526447675007, 0.2840396533791904, -1.2708416759842411, 0.8425641445075264, 0.6147732921913579, 0.21375015986098925, -0.45328127162020215, 0.9360901554756291, 1.256562687818342, -0.1253357027702087, -1.5318321427229304, -2.3436157257935633, -1.1278538225046593, -0.29683200280594585, -0.14557569970718984, -0.2135794231910454, -0.7032575348360478, -0.44766149624079016, 0.5248725785193984, -0.21003115332767205, -0.32991177050651177, -0.3923503630596588, -0.9707830854554503, -2.3176765415062373, 0.5617467933821858, -2.199589227491564, 0.8174175351725285, 0.8920578439021496, 1.08908741392994, 0.5427677994920821, 0.9949790045256329, 0.15153400603958322, 1.2570433110160038, 0.43815432952939815, 0.5178236852756465, 0.27892583354649203, -1.0076475556424664, 0.4703840114097896, 1.0168468857110335, 0.9765877648033282, 0.9276343015577329, -1.296345767315723, 0.33348521257326935, 1.1488590994711707, 1.745457733035049, 2.3031621124303263, -1.1920657209828276, 0.11324484122961857, 0.5783775262884873, -0.37650649018045557, -2.134149010926715, -1.7564578030029923, 1.9038986343435693, -0.007793403539907957, -0.6072249531894444, 0.12452478834616426, -1.451652114654749, -0.5248151713879445, 0.3836207418874948, -0.9907801073836239, -1.6466481259120636, 0.38540238430431706, -0.6279210929379851, 0.8339836037122368, -0.718612836380924, -0.623556237217922, -0.3136021000133059, -2.0126930877129867, 0.22122575480132667, -0.6556447119828747, -0.7994218586586699, 0.3933434827458553, -0.7460926607562692, -1.0993439411192374, 1.1607821984873286, -1.5055256760606837, 1.2592646644055083, -0.8300419560189243, -0.19520058275753732, 2.1756192120372777, 0.8562958822124598, -1.4438660391951388, -0.027548572045418405, 2.144030343885029, 0.563421231386579, 0.320619305014299, -0.6003175388860879, 1.3631602415751358, -1.0984934003020923, 0.4677193875733047, 0.12792224262731172, -0.7549957840584676, 0.07534513487220824, -0.1485587916752822, 0.233134577953958, 1.337331674256021, -1.0109929721009958, -0.48717711977818096, 1.3259016498936673, 2.0389064932554795, 1.3847306373264308, -0.9199463112902323, 0.09122198730841688, -1.3488688620110763, -0.5315145127317789, 0.01661290979884341, 1.2623368454513415, 1.852399992934577, 1.0134952443798766, 2.0575980600615007, 0.6105496956292952, 0.3959519818333829, -0.25256467233432767, 0.684751973611156, -1.165187747871982, 0.601357604689048, -1.2208003364994429, -0.02049859126049971, -0.09601562709975986, -0.0961353055759989, -0.6030419222376081, 0.5995564138125492, -0.7690360439867587, -1.3075294617324096, 1.053258071282318, -0.4629313647941318, -0.20699529832710195, -0.5464977799442896, 0.08705771395870518, 0.49200786124380314, -0.3996730393090405, 0.1797773594575834, -0.9719175047314669, 0.3135563484669584, 1.063471050165094, -0.6678906177740911, -0.8720281025038863, 0.8142368927308845, 1.1346196188154198, 0.6178606144110742, -0.4697729082770198, -0.7215959586498548, -0.06789359806285236, -1.2196595458601172, 0.2702138591266624, -1.180823322760698, -0.23880184248541356, 1.0182885078026733, 0.26088969929855954, 0.8620877990125575, -0.8745621034803885, 0.693490037117896, 0.5362410331525865, 2.0405951433948433, 0.35324514229906906, 0.08329001911914767, 0.2960017014722797, -0.8291873560834854, -0.23421688741473504, 0.10450735736941821, 0.8643983971813141, -1.3031710678378812, -0.6257319866666001, -0.5679543846133045, -0.5512175539613765, -0.045372238188342615, 0.4932418003195989, 0.04285421558261669, -1.0071980845824324, -2.2396516910691666, -1.577904550034311, 1.351845667510452, -1.3265767238914241, 1.5469265430147814, -1.0963143709296088, 0.5132141665249307, -0.6305491390320775, -1.5798215025815021, 0.40810131484960005, 1.8538499268637867, 0.24837475196993417, 0.04309706776218051, -0.08654632295747752, -1.1613293864538643, -0.6551353117465547, -0.45861275905969745, 0.35009197774057577, -1.0483305058708363, 0.5435553843529289, -0.10365213878939968, -0.6630455504887407, 2.2812208749085063, 0.7670501689181235, 0.15782396526369083, 1.1025553888544963, -0.4432958065369694, 0.21113323757839655, 1.1384573550153676, 0.9656037757177234, 0.5039231119984217, -0.16949166954866857, -0.191306896444417, 0.5381063388910227, -1.3733370311971207, -0.7246839751848556, -0.6417946473059206, -1.3454708208402277, -2.5910568651967876, -0.6038839442212636, -0.07249510751969075, 0.35408881490760735, 0.772000456644954, -0.7659505785614744, -1.3983297947901314, -0.6804574405775264, 0.31189368628836256, -1.3304925290478884, -0.3897650006667693, -1.8487591580041982, -0.6186360260416536, -1.244219987289235, 1.7459417736222065, -0.635291616933214, -0.5790041419769731, -1.5101872186481067, 0.20930376150289653, -1.2062943498525451, 0.9130497658396779, -1.288127839057096, -0.9886735687791514, 0.15060079481535796, 0.058230568846641975, 0.6386368437837925, 2.034438088879683, -1.3910297557025029, -0.7906751126280783, 0.24304308429410101, 0.36294813126091113, -0.7886259095530757, -2.1202037255757, 0.19553174641150933, -0.09886622077705683, 0.2492614796669028, 0.21598088943087992, 1.077993472866578, 1.299708500983344, -1.6712164667612883, -1.1181946897856654, -0.7420628440702105, 0.39441813184567615, 0.9128372862376113, -0.6719807763759744, 0.6420990570449896, -1.0575722037621407, 0.8932178741149652, -0.8823031922723594, 0.31605384494332034, 0.2557025775177011, 0.23665851136235758, -0.7525475636011622, -1.292485408044443, 0.5058137322343627, -0.5905647745015508, -0.7718850779167089, -1.1784016515620794, -0.6501171180966884, 1.4018404527769537, 0.8193320032806919, -1.8100214813119597, -0.97092166894465, -1.7789738259549674, -0.35490142879911346, 0.2672811255833961, -0.2400300465550883, -2.106729213544427, 1.6074508763873339, -2.0867791244556257, -0.4030777230287768, 0.3662555395116892, -0.49149929872578946, 1.158527691687213, 1.4656851567855145, -0.3615118356099385, -0.24590601602998868, 0.08520790292339799, 1.2043535138047858, 0.07403123286418668, 0.9402671666469777, 0.49780366565865714, 1.0893677311404426, -0.4033691489664241, 1.4323895586311917, 0.9109332047165062, -0.43708216567413793, -0.4994345134609921, -0.8503348771065855, -0.7467528790159241, -0.22671822680429693, -1.7838880054023187, 1.2748781254148889, -0.3342582922812552, -0.2352052018639714, -0.07694058150365753, -0.48614986335679056, 0.5620277031751028, -0.05857887695997878, 0.42730845233404857, -0.032495738748914045, -0.3633971912394181, -0.15475624139959607, 0.31812906718069917, 1.4658665187000477, 1.026985020125864, 1.1575494781109616, 0.2657642024689521, -0.84937550732011, 0.33216077223686524, 0.5646927802380586, -1.034685409986456, -0.5360448545041288, 1.0796568169024225, 0.5721011555490501, 1.2922423853818554, -0.6351076143029144, 2.384672256888879, 1.594559875695662, 0.14156756901780373, -2.215357233312391, -0.8177131342127749, -1.995558193519101, 0.8045827538254666, -1.3015623687230653, 0.5458900208025969, 0.6360771868524675, 1.5749450931205975, -0.3697618017194155, 0.19855985546788016, 0.21172956969218396, 1.2638793432819992, 1.4117038873598013, 0.7229774112481706, 1.3945663389757528, 0.1126694422120142, 0.9439016539004769, 0.7648017243661692, 0.2743555532869095, 0.5258248058423989, -0.6121933340858613, 1.5217677147706936, -0.693411927764493, -3.1735766037145443, -1.5735018525252966, -0.2910454991449433, 1.1877063851532517, -0.134064077425022, -0.9189373165701031, 0.5004943334656838, -1.9075462995368087, 0.6338359435229068, 0.3483976111991578, 0.512702503819885, -3.020902589436159, -0.9761013671634412, 0.5771204481705973, 3.027505876682632, 1.3102194606815485, -0.588354400013498, -0.48903639965518375, -0.47667081820859875, -1.3442285025850407, -0.9701175978625695, -0.6408826550726021, -1.1715053731357299, 1.580178701340726, 1.329438996143453, -2.3679402373131757, 0.7632178081054874, 0.03425046219442492, 1.2296358417376456, 0.4929515580063186, 2.189518314568233, 0.5882451743274784, 0.3058828279964979, 0.8644119088650678, -0.588853384756842, -1.0206510234902153, -0.07090023639910266, 0.291962022535638, 0.8206753756558969, -0.962404366831755, 0.9464919493053165, 0.6705060626874217, -1.9509398374918385, 1.7790015652784659, -1.4108513691101598, -0.7032128320533965, 1.8490524446441574, -2.2579273485440443, -0.8953536571116285, -3.7430564255341845, -0.6202411755115621, -1.2951955087125708, 0.1958237282617955, 0.5852254903681692, -0.21435838910952282, -1.040552823501815, -0.48222718229787215, 0.8362031150332844, -0.2750550843313858, -0.04697854010457356, 0.027465844297481876, 1.0017373395909048, 0.6125494186834554, -1.3874670875506447, -0.055879321074384446, 0.1898370795473968, 0.6636306368083164, -2.0721116705205946, 0.8105137916090849, -0.2866317889911524, -0.3289125213516039, 0.3401471292430127, 0.9577657177264454, -1.2660816100621444, 0.37454609681467443, -2.1030250222915305, 0.02185185906460334, -1.0897207422861375, 0.24364443557716575, 1.2732205962725007, 0.029978036225131864, 0.9354328631958668, -0.5200842613888751, -0.9177978167711239, -0.6692618649145675, -0.666213302717703, -0.23327562401580637, 0.005015437858735428, 1.4984743701704097, 2.209979833983791, -0.7719967492473532, 0.018159574398619493, 1.5955201843950733, -0.8878751245736121, 0.6409728499643129, 0.8497353898772028, 1.1137303793132316, -0.42818389944148955, 0.39714496105663033, 0.835603199085145], [-1.185418225078543, 2.0983569506249924, 1.1391200141945943, 0.16780909942206867, -1.7181739339260196, 2.25211155156535, -1.1374499736780994, -1.3350373536944495, -0.44190245323628996, 1.3761771420287239, 2.017160729928554, 1.2331320522839744, 0.7010583448082978, -0.7046607281241044, -0.31633477247865277, 0.12873259603341186, -0.03370340474112033, -0.8219712355486123, -0.6794377074669978, -0.42557664887198865, -0.7870771107852549, 0.36143839234903713, -0.16519836524155765, -0.30887755910785913, -0.7518177500870056, 0.20676712699466718, 0.39218950849179485, -1.3459822866495954, -1.4452036471376526, 0.014619135932714224, 1.3788012682777804, 0.7464574988371454, -0.22010168337489433, -1.329240828615546, 0.770969220009811, 0.9565708912679385, -1.2141759967061467, -0.5529752678912803, 0.6091208728768559, -0.4366582304835614, 0.23475357142494202, 1.3185456282442607, -0.3395914242531187, -0.41634082225767566, 0.7227380825073252, 2.476474237231187, -1.29240189420495, 0.3084251374157703, 1.901940032109357, 0.1708217918225124, -1.3437212232132667, 1.813217506831665, 1.3119704195687152, 1.4108192082554696, -0.14569300546838057, -0.2309526489177707, -1.6250409233134069, -0.10233486965473373, -0.20684132539817227, 0.8864881610688427, -1.3088091001937872, -0.3549342748124274, -0.5965138983032516, 0.6426889067940992, 0.6873876571942233, -0.7375881038210303, 0.1298696368767873, 0.7252299723924749, -1.0214084669912458, -0.927878357900714, -0.826274969516951, -0.9250009366745938, -2.080312869966919, 1.510321801708594, -0.260679661347254, -1.6871066977117726, 0.49335604359041363, 0.19264233992523933, -1.338954454554868, 1.4438866905645653, -0.4730025767737886, 1.3894947315969324, -0.13653200383267797, 0.7363399865781257, 1.0403478470194474, 0.6658739129325403, 0.6037916356239335, -2.576398943900788, -1.0888181616786712, 1.3089121704070819, -0.040345486649688594, 0.3406466559978733, -0.09748736365389579, 0.39739911578135767, 0.7812622851735034, 0.9832053658736297, -1.3288749916219464, -0.534750246210788, -1.26819177297864, 1.4997239989750404, -0.8047207485055067, 1.1787224246144419, -0.22114798190159238, -0.7172210361842478, -0.8897478968841837, 2.240594512143426, -0.3871022144685904, -1.640859496542468, -0.1503682757628906, -0.040037105999137707, 0.6833142746355942, 0.609543002468032, -0.3234248604209221, 0.8173702629913616, -2.5946770236659615, 1.3882473352925306, 0.832322924106535, -1.0294015544491277, -1.1173658941680236, 2.2374747182008154, -1.3911275714091993, -0.7398599072293539, -1.2676159928080137, 0.8441441678981318, 0.5789402927554057, 1.6454526833348606, -0.9767106781332345, 0.36141311626228095, -0.8140181823347608, -1.3264965776088173, 1.523891299426442, -0.6347448202227524, 0.2881359971739364, -0.07463499468705193, -1.1424085972265863, -1.3765527003840727, -2.5346365467941427, 0.1896799288101854, 0.5374827976596501, 0.3576418973192775, -0.6164755891112645, 0.9053413898738355, 0.295511947711103, -1.4385468522361582, 0.14987889584730932, 1.1241051127180843, 1.7577907831817965, -1.4272110477253204, -0.12937662639216255, -1.098691802035082, -0.14052109627185314, 0.06724381012340327, 0.5414982128924916, 0.8644733184840642, -1.2777715727956827, 1.2586206271243152, -1.7586509190381594, 0.21880703093618722, -1.0083539871674958, -0.5632276022420034, 0.8206820026268028, 0.10681900863959216, -1.2737915088600966, 1.047376355044758, 0.002397097501140582, -0.9388681122148677, -0.8769273902886621, -0.07410280061091035, 0.47955369937504116, -0.7617706879022378, -0.7662812086889623, -0.6290152776982887, -0.2280147225212242, -1.7863719213793174, 0.2205689032713091, -0.15152349149008362, 0.27769779061923144, 1.549575487608086, -0.794577069496554, -0.05764838178599645, 0.9115696911052825, -0.29885817895351546, 0.9159343544828572, -0.06372956727047413, -1.2506308511579232, -0.4826112240399333, -0.28970304120861157, 1.427004731280595, -1.308430040877505, -0.5899571045071029, 0.7847650130497985, -0.4006773032326326, 1.3522434994867933, 1.6540921626031744, 1.0205349323429966, -0.9106811781821105, 1.031302688554149, 0.6102024883197487, 0.33789097049867195, -1.0912127813531716, -1.1310867930874107, 1.185622811372048, -1.4728275701537, -0.10239030213636713, -1.8120655559889396, 0.6839315619065257, -1.5921502434127945, -0.8313111343707454, -0.27278040012487886, -0.7584409977123993, -0.7883418835335112, -0.7877278991075943, -0.8774804716690443, -0.34613263083865065, 1.1715467454929005, -1.5817203891939389, 0.7158125864550879, 2.007872401366499, -0.3522882631384553, -1.2804218319730856, 0.7024374188272365, -0.24295257211154972, 0.09615578195345514, -0.05698802754580867, 1.1816468538986038, 0.09180658782816593, 0.699687123502986, -0.8935305627900064, -1.1157629283528372, -0.34132838062402954, 1.595645915815376, 0.9503319834691456, 0.23098642841671632, 1.553138064710155, -1.6864372118796442, -1.0266311365738947, -1.786951087486678, -0.9797229632068264, -1.8103060556213526, 1.6395100169746792, 1.422376127381113, -0.6467703204966502, -0.09155907959214644, -1.1126356886025455, 0.40618711825220427, 1.4522119939391887, 1.6780165649248366, 0.5135990367329913, 0.5012336516565133, 1.3740312012674294, 0.5763598494266361, -1.6252799920102308, 0.5543820619475441, 0.7904479494101263, -1.097004365494124, -0.318735906951452, -1.2293043209638301, -1.6392750617949936, 0.6733530195615888, 1.0383246434436417, 0.011575312183123236, -0.48557198059881596, 0.4464289881458617, -1.2960781708331615, -0.019661733764162005, 0.7004025045416571, 1.4562449663151322, -0.7679335103522567, 0.013304830700480674, 1.654602991757218, 0.41833618833451475, 0.4140585798903417, -0.5390124915587454, 1.2304177353142702, 0.6804962165769827, 1.0883574594037682, -0.01911723505042813, 0.3838918626167166, 0.5915576781102172, -0.07901346593993293, 1.4822213056641664, -1.052208948942704, 1.9908979592088205, -1.4053088331148862, 1.590872377008753, 0.6762750049564308, -1.0438684676326209, 0.8210495564802042, 0.2635855797720091, 1.2975852660648934, 0.5500338585241132, -1.5040812150434464, 1.4858688796322617, -0.4338364358589264, -0.7848343851957938, -2.066659996275953, 0.2612645707442063, -0.6525666068028777, -0.6117301537189751, 0.7858846271109093, 0.9432102962220922, -0.22841384347258473, 0.9976172235457225, 0.6667681021027367, 0.895392170977157, 0.1601418935089456, -0.5427735736230688, -0.6028483189408022, -2.6499298672608087, -1.2214786603623116, 0.20903867395834375, 0.2378909718308754, -1.8628495410677837, -1.1732693163813102, -1.2574092792043703, -0.3182381912009466, -1.0895347245433382, -1.153422987177287, -0.8455503981640509, 0.8392201515542708, -0.7641280959119348, 0.6809575043200895, -0.0367046854110684, -0.5587182349190968, 0.22765499825118823, -1.6105744481551902, 0.09008947589659792, -0.9700762730266506, 0.3212888191854634, -0.17452351455244444, -0.780975575147805, -0.29442654873613605, -0.6675859039349656, -1.2555246877673545, 0.8958809091370522, -0.00970354531153487, 0.38451435507429466, -1.1279330688447016, -0.0021846069230240447, 0.9411475616167758, 1.2966406822051906, 0.6059168823211422, -0.658711633199088, -0.269501504327071, -0.24929840765678538, 0.9801743127801492, 0.94082668024798, -1.063129842472162, -1.1012695926276148, -0.15509653383202998, 0.35862443941796324, -1.3759957677625407, 1.58693563955602, 1.1403994988061132, -0.9916255663014207, -1.2470180018935408, -2.782462112003238, 2.0532325802051252, 0.1756915893338309, -0.5135574477740974, -0.1756752247414696, 0.6163989658887009, 0.058226326537962114, 1.6425081381638797, 1.5875598033560385, -0.2977305285576528, -1.85434365120834, 0.18594142577325545, 0.45338307301675035, 0.5373440503033511, -0.9037414924720307, -0.7116763717662882, -1.0266564036212817, -0.3833450351575593, -1.6048894568131988, 1.4447424671131208, 0.5135579718983349, 0.6890665320501084, -0.26574687483301435, 0.7454075646031952, -1.0640127668642703, -0.9349598545462807, -1.6973761426973883, 0.5410130280119448, -0.6155119776815895, -1.4136890163727727, 0.8149297365447972, 0.3621271885805973, 0.8135698472587073, -0.4023756520485157, -0.6719313578059795, -1.4266427372656865, -0.656755351429235, -0.29915370137052083, 0.5399594868249072, 0.8184906218908466, 0.12064747696852665, -0.6029373404453549, -0.0027758900063279547, 0.22319569524552935, -0.25181287773477506, 0.36636666288283004, -1.2477034321804275, -0.4270753510294238, -1.2705002918827748, 1.2649885874227649, 0.18849085472961705, 0.36997301347935463, 0.729522891850359, -0.7489147888146209, 0.43811192435877755, -0.7407840896976973, -0.10118413751568382, -1.0399377566246872, -0.341152008686191, 1.4984733001413313, 1.6551477355360253, -0.009233099168423258, 0.16968130308215867, 0.07199227404813796, -2.7435884361772276, -1.6244989325972585, -0.12584882408925177, -0.1533756851344295, 0.4489429472890771, -1.035170452193194, 0.7078705641450123, -0.5156401794644501, 1.2747714794934473, 1.4827746478303656, -0.7004046082733477, 0.27659504385972433, -1.3255133586657628, -0.12931343366476233, 0.1930292868822576, -0.6039669161202015, -0.32908223412935833, -0.2988603864595917, 0.6104989348619719, -0.7460673529170531, 2.0701138034514255, 0.49696515676068265, -1.1071800092013704, 0.44270087317100704, 1.187666558117575, -0.04268230681108327, 0.3007622610145361, 1.311579992584981, -0.359695950748451, -0.12929412484968142, -1.0129247427225634, -0.11805312460752015, -0.21468475485723207, 0.49454091873939693, -0.3574104181489131, 0.2528946485535017, -0.7816093703938052, 0.4858824119790864, 0.4046700139262654, -1.3774565719518002, 0.07387058371216879, -0.1409506919516619, -1.398488126050644, 0.5961759795690731, 1.3856847799769703, -0.06668520031885299, -1.8293432556242035, 2.2218818498795225, -2.1062053842314192, -0.11371479228385287, -0.8412987484892418, -1.415252521537243, -0.78845706143796, -0.4086358311350087, -0.05721709342501902, 0.6688804306276954, -0.9587055979773723, 0.050999479191716574, -2.678780578607814, 1.7436540257309288, -0.8611849113056473, -0.2804535837725348, -1.3684679453525939, 1.3501297709933693, -0.1761580010502549, -1.537810173014568, 1.8392988586518013, -1.4209846249061004, -0.9538236897601948, -1.9913518593722084, 1.0594377188270425, 0.8244320006037843, 0.7038951577030041, 0.5828565221892044, -2.066469832058879, -0.0780957234267831, 1.469674222087939, -1.7334398884197366, -0.6392069894646496, 0.626746367490469, 0.25422363183154867, 0.16404306418434073, 0.6861333078378283, 0.20031244402664453, 1.7121141145727878, -0.7340700713977215, 1.6157120158331855, -0.9023324086175346, -0.410617778060872, 0.05992316796888744, 1.2202085101636586, -0.22496162982876733, 0.24989206914097936, 0.06147076089089221, -0.2563791543235326, -0.06086571541758329, -1.2207880126735915, -0.5093211338145074, 1.3645065924874333, -1.291842743802378, -0.33457235798943824, 0.7077208901805837, 0.1441931210633578, -0.4322530592813253, -0.4385884778777484, 0.3025699524157073, -1.2244608886801271, 1.8563406001465745, -0.22939792515357135, -0.673175402148009, -0.04246385345883792, 0.6936611120787362, 0.6617554739215716, -0.8607397759299505, -0.5373085268835801, 1.48840835900081, 0.2902696114326643, -1.6667563061005835, -1.248404714427529, 0.5199767172205565, 1.1911524126549966, -0.6694966116067762, -0.47096991968347895, 0.2839310887691643, 1.8673540271781057, -0.19238547771052866, 1.3190194504819028, -0.2880618384243268, 0.12894837198449705, 0.18758318646056366, 1.965352962131404, -0.5950022405683139, 1.3261657211986406, 1.0259134246690897, -0.3674405615446547, 0.07435248774329, 0.5380520493988064, -0.18843983838614434, 1.4826562164090151, -0.6240728017208379, -0.8213561887277103, 1.124663571114583, -0.7563015144738297, 0.7020372154882621, 1.0206041164799955, -0.34495338855205687, 0.6484506332904922, -2.2878383599614285, 0.13499292369645377, 0.8909121552998888, 1.5550499026773665, 0.39882924234368616, 0.9316095887715814, -0.38576312131117657, 0.18040358670664006, -1.4118099289929258, -1.8730697494233017, -0.02607801149183305, -1.393266545010072, -0.30686346910807827, 0.1578016340810482, 0.17391307523886845, -1.6829878025316256, 1.5819024675292703, -0.16002084632440156, 1.4221373207300185, -0.4348773942266524, -0.7260473995798776, -0.16417108814585113, 1.7476698689606542, 1.6468944487656723, -1.4403280739896083, -0.048506197914728426, -0.03953317154349244, -1.2687123147168027, -1.5801329598089016, -0.357465919053066, -0.489342695641713, -1.8558632299598021, -0.7207247889598891, -1.2894618794169408, -0.29862933936214614, 0.13512670862080706, 0.22423893378935203, -0.7426796273838399, -2.2289914744986112, -0.06357694283326648, -1.536395184839877, -0.9081707662746327, 1.9901555012511436, 0.10059479428008558, -0.7740722989819541, 0.8864525204185488, -0.7416430983394577, 0.6972204394332194, -1.4049209851286961, 1.5264448644779511, -1.4427230888799036, -0.15973424352929919, -0.35442427089083484, 0.7589909154744922, 0.14713728191471853, -1.5760394545081586, 0.9661345771898859, 0.49867360693876933, -1.7255667440486662, -0.39878433431948407, 1.0822699233180342, -0.9488647139601066, 0.049337475133486526, -0.3653027654910147, -0.8750675200659196, -0.61896231418963, 1.3648707816309482, 0.4776324424957544, -0.801462577537736, 0.980514824229339, 0.48882766192959526, 0.9660229526517852, -1.8938460578215828, -2.1790857226880016, -1.0306709768454232, 1.857971554165521, 0.8154935208833162, 0.2260367108583955, 0.1455978270801517, 0.30828788462659895, 1.4766284777402738, 0.8924480083216577, 1.335647166398246, -0.4024449660434478, 0.5984279410743616, 1.6016413710990398, -0.9482005103990951, 0.25342385731396744, 0.6984147577167161, 0.48536158497067694, -0.39623516395466457, 0.5240109229959663, -0.08564133360853038, -0.07969073925892221, 0.31975630521058834, 0.2749263438170322, 0.40543149767716347, 0.15186277307886378, 0.14966617937325455, 0.06802098603462267, -1.8052204523098736, -1.4019483762517626, -0.6683727454144759, -1.5216973457761216, 0.2388194994063014, 0.9982166891445573, 0.9074829055609436, -0.879436828612446, -0.9209909710690256, 2.032008422881708, -0.63100522691727, -0.1760654398019721, 1.5248998815013608, 0.11609660676743379, 0.14184567150234645, 0.6238010912367956, 0.2507034666625379, 0.11051367969889807, 0.25664049983580256, 0.6198567467879829, 0.14371929173104972, -0.3327692222249594, -0.7951648405973211, 1.2815662065724578, -1.4264077352668747, -1.4223959445496661, -2.171211423500347, -0.8178348338916535, 1.3178854733465637, 0.07054107067739987, 0.39131331341524445, 0.5405496458706136, 1.4616202449527718, -1.1431409260728913, 2.006011964419437, -1.175238643759242, -0.8921105991101643, -0.627473932550116, 1.1782044412745285, -1.7893170586419438, 2.279914263358691, 0.540427171146469, -0.3084802780054214, -1.3684404379010133, -0.018402907499287382, -2.032453662303197, 0.8153885089690623, -0.15296944128050718, -1.8703573619968643, 1.6677676305806937, 0.15807827696449853, 1.9591097001942162, -0.7592484291621117, 0.774033707451047, -0.23683607506259266, 1.0787811528442408, -1.108366050201667, 0.41178867006793796, -0.04684239191434663, -0.10105464434867632, -0.33552487670852943, -0.17498502861052864, 2.553017622747786, 2.14739108032555, 1.834127462241807, -2.131235404173401, 0.6507281512927798, 0.34401886969947487, 0.27594653955794574, 0.15003514937214793, 1.3757785998717647, -0.08958072331387704, 0.972345641637187, 2.126921920361607, 0.31361230403387824, 1.129133584897849, -0.4948515210493229, -0.558522006235325, 1.097094898229084, 0.7261584287642711, -1.2615547416879442, 3.3506574574676793, -0.19368596160760046, -0.7212360275784819, -1.2622672807276945, -0.06902948240215201, -0.8947975630939894, -1.2797198479485665, -1.2053045248714485, 0.30438384598348933, -0.055842252614258306, -0.44292631324415854, -2.600375353363439, 1.272314643366083, 1.328900655401707, -1.5563633167143656, -0.7829150498926899, 0.5534558527250855, 0.11429188251223792, -0.5325358156271778, -0.1888176539192254, 0.5247399775402936, -0.1638019828374646, 0.406994909639784, 1.3925297166374715, 0.29260565770714736, -0.3432784067151974, 0.23940648810632445, -0.6505081917639125, -1.227013844309888, -0.7918586269254845, -0.2149659765431333, -0.5061179477638178, -1.1451974400293239, -1.8081562949338055, 0.534537398987145, 1.0639195692052563], [-2.3671716672195355, -0.49227062638147195, 0.363436357925919, 0.9298588233110787, -1.207566603992695, 1.1766560026411537, 0.12177509387472533, 0.04390783537433237, 0.0030966720302610137, -0.5245969161529176, 0.5375444171913418, 0.7363588236090773, 0.4052814401127046, -0.5069229724670324, -1.0613027440770308, -0.4921996953892686, -0.03738564495605757, -1.0050388305919116, -1.1449979411715403, -0.16115136266952057, -0.8378801597449632, 1.1142906943932682, -1.084889881873219, 1.1129062785213837, -0.9943896999109225, 0.4364844078648269, -0.5589816262669244, -2.2275246911637736, -0.6078174936165688, -0.8385696934072487, -1.3503633182725259, 1.2185674752409592, -0.3464175049497046, 0.8201579859812909, -1.0152482616606346, -0.638833660710626, -0.12082971375303339, 1.2739990354307298, 0.23616973744886885, -0.03261612068494935, 2.0156764961275733, -0.9304353972824876, -0.20824398173049638, -0.18498416887571195, -0.23069213456439733, -1.4688304037403097, -0.0023720311317967937, -1.2105132645392396, -1.5562003585299686, -0.33425396359072346, 0.15662493295490332, 0.5263383405121198, -2.0298172672677444, -0.3750201955777855, 2.1073923201898306, -0.478314040620303, 1.3865508907228994, 0.05132392459231399, 0.5401528796754628, -1.837410981649252, 1.2494512185298354, 0.7409720559371112, -0.28715031347161313, -0.3988723293243758, 1.3792336913667966, 0.11918589504345807, 0.8535513732884072, -0.39013056987421124, -0.6391649472007463, -0.24100201180953756, 1.231125564238637, -0.5905622174895133, 0.00894318167024794, 0.8880559328036903, 0.0706301743298357, 0.009460844088183352, 0.3673940345473128, 0.08427724853976845, -0.18415029254432222, -0.9913905500852827, -0.5685100856439301, -0.13818312782303108, 1.8487181310816592, -0.7389864355249528, -0.9711493401880572, 2.346221397566782, -1.4983556042538317, 0.36390134844579597, -0.47280859730178665, -0.3104539420438032, -1.316004499896776, 0.26366503245661344, -0.36892581702993077, -0.2711756603783523, -0.29414421983208283, 0.6857757082215616, 3.4148630795163077, 1.4421400826167279, 0.8787268808984204, 0.83573607853719, -0.10960614605321851, 0.7981793063784152, -1.2914045392362554, -1.4615140925331802, -0.7045605433554633, 0.024056784100345695, 1.101905119483088, 1.4165182629571549, -1.4134517173919956, -0.5369950350269668, -0.28483446373094046, -1.0029250869911805, -1.8752864211646274, -1.4435486023238526, -1.024886720179322, -0.6953431218041776, 0.9608857056126132, 0.16433860832755776, -0.0408983409371808, 0.6058242331455624, 0.1440771590834172, -1.51483989264015, 0.20863609244196407, -0.5741808778061966, -1.5740499964611963, -0.9996598881102519, 1.4223320101908732, 0.477155275088463, 0.9451309758890115, -0.12958465209795658, 0.1639703954129059, 0.46314045902773254, 1.2493512498872614, -0.4859118566810461, 0.3918450638525441, 0.2400284697186232, -0.46281118562240003, 0.5464510186041502, 0.33775151902265804, -0.8908136587728369, 0.32317057824124124, 0.7885284547959005, -0.6358314383398509, 1.0540677482165497, 1.1168001903757112, -0.4039123595892314, 1.100259708670864, -0.045961763521512426, 1.093593133631204, -1.3781698929995083, -0.9242072948435339, 0.6424108756960494, 1.8144562653450926, -2.5969702002435207, -1.4406264219928424, -0.5537438118621939, 0.20725015515426748, -1.0856464648952333, -1.0035687479345548, -0.03461011405463918, 2.2411408378811535, -1.031959507735515, 0.6839425166722114, 1.3049570384105673, 0.6344433507815382, 0.08972180124600602, 1.8824264332801064, 1.3240470952540544, 0.04456040225959102, -0.12102834704155704, -1.3281140891128476, -0.4758359941963443, -0.029236112851037943, -1.6897672766965752, 0.5660489688881593, 1.0899637710791903, -0.776638486147974, 1.282689197679345, -1.4028074893696256, -0.3669908205010887, -0.96296902050148, 0.6752179819941376, 0.5044272839090614, -2.942899746096868, -2.7764599502154437, 1.8542385231931182, -0.422553306858561, -0.5766542751390349, -1.351404543901925, 1.4297059713118359, 0.5109674754759617, 1.8941364993493532, 0.7345550478141499, 0.8596645086404425, -0.5584343276127502, -1.0997139226871042, 0.8563884288513149, -0.645226017000651, 1.5042078055051191, -0.8498565345967891, 0.2711260950256403, 0.203380047720912, -0.27690575205677553, 0.018464192358264356, -0.3152061937039203, -0.06599783386381443, 0.3665776486756923, -0.03089424092659932, -0.7152140411966914, 0.4874434520520179, -0.6729891124936526, -0.9925106248077782, 1.079491231582589, 1.1002303788803065, -0.04633329653626287, 0.16624749365868818, 1.5190090714589695, -0.9754421968030016, -1.9937633205411436, 0.7292999508777064, 1.323299711455869, 0.8274212106726007, 0.07990568676464072, -0.14410650995408478, -0.7784446256981127, -0.09881022999855509, -0.6129496690042994, 0.033343616564573464, -0.41284570800633474, 0.49246094115325384, -0.7733393396692475, -1.197590298233388, -0.7314256971717914, -2.0379509421469213, 1.4450044890340374, 0.7534333478304567, 0.5117259085139345, 1.1888550580313908, 1.4798198457415344, -2.3616211497460498, -0.6546934736641186, -0.17676037527397256, -0.9264336294478321, 0.19842767311837922, -0.9327034182411984, 0.3253357062354739, -1.8277909945054014, 0.7689748318644234, -0.9527691638427807, -1.5952004068960244, 0.7025658556273211, -0.3370700122175277, -1.7239013190992707, 0.11000749687816522, -1.1559681745709998, 0.4983817371246493, 2.313398826529782, -0.3632445476311908, 0.204526549017357, -0.9326420854846967, 1.361558345992884, -0.10327297410665195, 0.46912315827247636, 0.9667337652421852, -0.36323499983698904, 0.43492604999467493, 0.3157883892076218, 1.7045593275055475, -0.5950295694096043, -0.8200373155722842, -1.6196088036228704, 0.829786888092232, -0.22443140774362366, -0.6721102767575666, -1.7301121995567539, 0.4106575388738612, 0.19904879977338213, -0.39508156310972514, -1.5345334432485398, -0.93091710198945, -0.8050512790449358, 0.7571472969835437, -0.9521372098678113, -0.5053208485427699, 0.32617962389552635, -0.12120043675759254, 0.9640234466857284, 0.6452141939393682, -2.098969461066218, 0.029581367313046922, 0.7270344152917075, -0.4684235608243393, -0.7884133795774992, 0.08721467483237492, -0.6340890355470499, 0.5482925700733643, 2.683355270727225, 0.4025226700846061, 1.1230121112508156, -0.8224313930659071, -1.3210323480930002, 2.014092811754315, 0.283124962973545, 0.7206205928691116, 1.3131020902964223, 1.735010513346452, -0.553735112893861, -0.5419515557000247, -0.1031546320809934, -1.9243792359798024, -1.7724903503914071, -0.7651437047486428, -0.9087680924007079, -1.3408693137934746, 0.3176554616861261, -0.3037167077677535, -0.7326338022842221, -0.8247723950146472, -0.029208521885268898, 0.3804237190443756, -0.8100145239789425, 0.2579785235503858, -1.5149779489203254, 1.1398603387808959, 0.03996615620789569, -1.07494366091783, -0.4397728604621948, -0.1347268004895958, -0.9055994303624532, -0.7243586219293441, -1.7033239295714202, 1.3150653557674181, 1.844913341077218, -0.3049352541185832, 1.134066138182515, 0.14260453675581305, 0.757013847048622, -2.434329440241335, -0.5464115200548709, 2.0305533313096498, -0.2550318168196533, 0.030500386285872334, -0.5891678295168181, -0.43818188277070536, -0.12420119043769794, -1.8140719939876229, 0.23187568158210967, 0.5474900661658695, 0.7512986275250544, 0.34304277328587, 1.8520241386799634, 0.3462015526420917, -0.9669879089854815, 0.10294567924463785, 0.9684728762964541, -1.236122262476976, -1.9143187601025387, -0.8671408363443169, 0.7220693421410068, -0.4833123929768703, -0.5573032978811349, -0.09117265750905507, -1.602071490536152, -0.6870465722341029, 1.5273787844254532, -0.18387467205196734, 0.8869063347079132, 1.4031680859832645, -0.6798307072020966, -0.45747238400709894, -0.9928264409829931, 1.272532911691707, -0.557459741291439, 0.45101154484589495, 0.1927713885241291, 0.9144892204945221, -2.209839581193158, -0.3883316814366894, -0.3774542251127351, 0.11108831842686749, -0.5217942875586897, 0.26197885001273985, 0.30846322053709585, -0.3582185766321152, -0.5235965534688319, 0.7264426919733417, -1.0224094143309759, -0.5018765918428162, -0.6813416840801327, -0.3963421462143406, -1.2900840182497435, -0.22154504373115025, -0.11294739790116909, -0.3085912324276934, 0.4204317425046774, 0.3950774408583338, 0.7110574138023413, -2.4374669160460205, -2.48857550372124, 1.2216979935747438, -0.22385007638312182, 0.9617330626189219, 0.11110756155671757, -0.1956012505238705, -0.2667415845634169, -0.2841983822541875, 0.2555416218323851, -0.46760929420811337, -0.6115477176550066, 0.5391117686197529, -0.41051204556801, 0.4962021730383976, -0.063592601484663, -2.477273735739454, 0.5721702556071913, 0.07013957950886214, 1.5917562948901685, 1.8303231087317786, -0.3759030009539786, -0.8528589425186979, 1.1362086572939134, 0.3082930326821162, 1.2408818152991832, -1.468344786547838, 0.4434145269596409, -0.5886844223297645, 0.939572447088977, 1.1051646918947038, -0.20176094351591214, -0.8013269478719214, -0.6716520062401499, 1.103925780493516, -1.2001593787293472, -0.35504229908224383, 0.5300958612279341, 0.5821683459784645, 0.9207050608583724, 0.1419198641735574, -0.6497639580429763, 0.4080080008200738, -1.0438758253319098, 0.5241774444943559, -1.5020110423676163, 0.8330395993442415, -0.2972879532111786, -0.6865173984249425, -1.4312335420153388, -0.4189695382672457, -0.05721038870510475, 1.507590739481207, 0.8704690755025044, 0.189280034670227, -1.0073903518606593, 1.0934282134738436, -0.7260969395293644, -0.659990146702132, -1.1350315739400978, -0.0401204061646737, -0.22657086638395588, -0.8877826906679123, 0.145022838642026, 0.5684987695423231, 0.6555803180152083, -0.4711222187990673, 1.6603934188153728, -0.13076789896312116, -0.5992279849224605, -1.5622144746483604, 0.5617282423638789, 0.012884351243925677, 0.26123276159705244, -1.2430046423171859, -0.07049965120503719, -0.7503827351599361, -0.1331185558534611, 0.41071221665731383, -0.47835010543735695, -1.6117457102714763, -0.7908840332969688, 0.6795197506946358, 0.6899836496673607, -1.2856520754472642, -1.3428555993802829, 0.017750243875295085, -0.5504255897736444, -1.3714418525605996, -0.4003874841359404, -1.3226510307539812, 0.4343826720113372, -0.3558148560874876, -0.6064753657718233, -0.7312843524288282, -1.172369298627023, -0.48891952385125126, 2.2193897259845317, -0.6184286695775693, 0.6729078842434361, 0.3061394546677759, 0.07949909279711713, -0.520340949110244, 1.0251004711303235, -0.2750362389684429, -0.09090214216750542, 0.038570900545405414, 0.6669670758410533, 1.6821376372637318, -1.5032200508689229, -1.1211314923901057, -0.6611173221841875, 0.8480597390610748, -0.5727910998552921, 0.0037610556213745847, -1.6344171826004532, 0.5534394145740312, 1.9263482004094334, -0.27126021953717455, -0.2657559016898214, 0.713295598638976, -2.290527009348811, 0.9010992642647214, 0.6417261933664283, -0.045840184096610614, -0.7367597985142148, -0.8009551405525966, -0.6818668790088078, 0.11616994015760854, 0.20601334490933498, 1.0906326090682457, -0.40731477538785044, 0.19940882076111696, -0.3303627022981899, 0.6449866103767218, -0.610900953124072, -0.4195544582696476, 0.7771867555748003, -0.6548992303315496, 0.5659959331787406, 1.9092914572859283, 0.07039765724250108, -1.4132012154577982, -0.9763245921318909, 0.36624285160244546, 0.4567885159746469, -0.7561593751237323, 0.9352095960546737, -2.149740980487319, 0.25029951243747306, 1.525011642656721, -1.2397905614415043, 0.8026669634971718, 0.6049625599524042, -1.2284535725758918, -0.13918622988231025, 0.76416386927451, 1.4401187903521029, 0.5395946304647293, -0.7487121165158569, -0.9498400898342533, -1.3336755388327026, 0.20424591923154645, -1.7598237247909678, -1.6775641417175924, -0.4570147693969705, -0.31582757385858057, -1.2589418869725386, 0.1895836072472523, -0.45231522566145677, 1.1531409418383178, -0.6775469794864956, -0.04808845922716352, -1.1219238116615042, 1.0681578525418014, 1.5584032571925484, 0.15015462744676247, -0.955210358921569, -0.15405119614349766, 0.8375194966097705, -1.3155029694187244, -1.4947714846939373, 0.02972856214070025, -1.0166897175819025, -1.371399098639128, -0.9807722164076649, -0.21154429606512398, 1.8038784004331199, 2.2412269934133726, 1.2266210496144754, 0.6209878881112518, -0.03784757160235773, -1.8040379208095134, 0.5119148687622206, -0.985451828735612, 0.7828444410041241, -0.5379197325643909, 0.5795638040845094, -0.8115272390329865, -1.1984588878855593, -0.13983642701397445, 0.7378277379717278, 0.6749937916114931, -0.015069134580489165, 0.01551084884418868, 0.6240978036192402, -0.8582001185701238, -1.627859016592211, -3.259941610204052, 0.18820335562139462, 0.16643572440816048, 0.11483663647288828, -0.9630299190111673, 1.2860063624050224, 1.613697375263956, 0.412123114890009, -0.2635632056823967, -2.434152614199468, 1.637363802796675, 0.21727782749830732, 2.190123981407669, -0.3540351007032258, -0.1591105088877631, -1.6884735004637246, -0.09540777788479117, 0.46925376567184435, -0.37511176976753663, 1.4628957623498138, 0.6441791380430856, 0.5366396958488828, 0.2563648030153532, -0.398611560380047, 0.5520284054954087, -1.528068589371188, 0.6772225389816983, 0.34753779910885246, -0.21571302846317986, 1.7395596081358227, -0.004643114101194439, -0.06853035625940877, 0.7600619596181731, -1.13545873091914, -0.010038479661222411, -0.2946344399429495, 0.1460895353078279, 2.4972376338352, -0.4892234857273142, -0.940800133032448, -1.2366218542443932, -0.7477257707446098, -0.6517459456395871, -0.44511208549179554, -0.5815046420219984, -0.8735951122407344, -0.2581262512470424, -1.6666562572517538, -0.7167631621826263, 1.3295118994855848, -1.3852820602806515, 0.24770299154996117, 0.4166374122624416, -0.15358843834125055, -1.155713914723477, -0.17397504605747993, -0.608277653162581, 1.276658986504311, -0.10848467622540542, -0.9011856009383374, 3.3430324993202576, -2.0982335385553896, 1.9230746449416947, 0.33235650931546235, -0.44859362379810436, 2.463324769392179, -2.708097788766798, -1.5091371904304192, -0.008731362239990974, -1.4613902718999292, 0.1979580678867102, -0.8726245061827529, 1.6634546945684752, -1.0678630850899564, -0.32685491548303547, -0.04389163934980339, 0.5547047625602801, -0.24921974034146396, 0.6036980857191545, -0.5324526572813906, -1.0697219052431097, 0.2856068598163954, -1.8763458947831502, 1.1560690468442145, 0.4144684561332592, -1.007825964530989, 0.8175409169355686, 1.978065498871822, -0.5701165685517731, 0.6443753979744334, 1.1558551322972614, -0.8801693496852406, -1.0409155833600376, -0.07129731246667029, -0.9310755256621028, -0.5245323611298327, 0.0623014383848795, -0.03433422043270027, -1.001409723591757, -1.5824773667199523, -1.3430940240293683, 0.6270709614176214, 0.34237389564225146, -0.0394632131588676, -1.0286753635160861, -0.5756701639877837, -1.5931686155573521, -0.15035371577322945, -0.15588526591303006, -0.38903299114645923, -1.232719255805589, -0.06887381115974521, -1.5425767114157232, 0.19600726981006428, -2.1368961042326515, 0.6618329663066417, 0.1902677446636532, 0.21799377196966593, 0.7267984465157359, 1.2823537458212455, 0.37615610149364326, -1.632097019136377, -0.526923861226143, 0.02421484168437821, 0.9873015114572576, 0.9355401679515023, -0.26899698366495745, -0.22108498690767434, 0.29675396269292503, 0.3187150283304282, 0.6858118298121952, 0.0710809392973881, 0.25372920250344994, -0.8342397321805779, 0.6312303244515637, 1.0917356693840485, 1.433949387153197, -0.4487524362612064, 1.2406281818633598, 1.0285224341122017, -0.9537065958590754, -0.9268632101945204, -1.137834981496131, -1.7940510740008886, -0.08091845094387669, 0.41645859966786175, -0.6578340380463684, -0.2484803309940203, 0.12334786510579265, -0.15345037652936408, -0.04916778479681499, -1.1638327780058317, -1.4683145283498773, -1.8874879359302552, -1.1641757504370824, -0.13296098623116281, 0.9653973046050025, 0.861395035298254, -0.3555480796065497, -0.07037369212002482, -0.1505247865346228, -0.681499146683788, -0.8957739216044283, 0.10664239414377616, -0.6004141838844738, -0.7527387760760887, 1.3248852419896573, 1.6054600464999345, 0.5708485906309003, -0.4107486236260539, 0.35058439648342676, -1.3409564090880903, -0.04807383500655922, 0.4332759715806157, 1.7372889746935418, 1.0694464356505087, -1.2791213198491223, -0.012272548462844923, -0.4242392194153161], [1.5729029119429785, -0.44470978538826256, -1.4370668370542814, -0.8882126866180314, 0.2391186282184419, 0.11374108007792681, -0.42102721518580694, 0.3732508398120832, 0.4940469290850653, 0.7520411960708602, 0.8908140139923143, 2.5612659701205684, -1.7686258407060005, 0.6172148611606445, 0.3126377908301052, 0.6585275595447824, 2.298454420266159, 1.8972414175440109, 1.515754585257598, -0.27120388086859026, -0.22471178185676552, 0.631701030235228, -0.21061828882229053, 0.7329957139021177, 0.1244207262951832, 0.7531837005849166, -0.05572816328622599, 1.2826373109526321, -0.8304689345200915, -0.5431298803917638, 0.17393337183186264, -0.6665182501981878, 1.148599670392397, 0.7233237735033962, 0.5063487886508062, 0.9860498550144674, 0.32001216405644817, 0.4899669519663249, -1.7033401107460904, -0.7027912532229074, -0.5464633575763522, -1.2965740717651697, 0.8463397605609839, -0.32256090426552675, 1.3644604085125813, -0.09963333706268122, -0.3813963112932762, 0.6555818577714829, 0.05061215719265703, -0.1801697814553861, -0.5666766788860151, -0.22045167840922122, 0.7108943436879704, 0.25387198920749704, 0.07680321785416505, -2.8102015667501297, -1.556377757608461, 0.307865220198813, 0.6145549073925994, -0.38398126670081956, 1.1962491328149207, 1.2748924981014285, 0.12356249643899932, -0.5651474851948193, -0.702900154749496, -0.437556720072288, 0.388791309169877, -0.34223181347043236, -2.232918998308675, 1.1806093840043848, 0.43328966478356734, -0.2702882164803215, 0.3610910470159434, -3.0798006202986734, -0.003084168512880138, 3.0940899575601004, -0.7347113148368757, -1.6724928265747108, -0.5735368601592499, -1.929788818795365, 1.2284357321023205, 0.6362411212167705, 1.439248219521262, 0.4343822522446032, -1.0190631651775275, 0.043931441176898574, -0.09771975681190156, 1.382519823813121, 0.4581332237772138, -0.9626732373355213, -2.489996250258939, 0.2784906999067445, -0.28557818812706814, 0.8764126282523624, 1.1206766416667295, 1.3791582435660688, 0.4933577456236427, -0.8923274135728594, -0.5231221334529544, -0.34435411554616213, -0.006757144224380992, -0.47325968823081727, 0.7257606438978038, -3.178122166461872, 1.3777451123930466, 0.19587930329367492, 0.2784934930275966, -0.9884792790940218, 0.1024810095049264, 1.2254746516279216, -0.09263450075427392, 0.36167650096855075, -0.24493286300739722, -1.4195059376593535, -0.652906990822525, 0.29051955546775926, -0.12535974579886458, 0.17451087547228208, -0.3751395154634672, 0.35297188605302376, -1.3273993814916707, 0.8756364361738023, 0.8718366269694893, 0.9335923922459182, -1.507086047317791, 3.013096783103151, 0.3092923308104254, 1.7923434417897202, -0.7980186017966174, -0.4956151090935037, 0.49838845872842885, -0.9977955581609286, 0.3112160125280215, 0.39108431583466385, -0.0007901670963075292, 1.0653906325558467, -0.8031686992633489, -0.030953826233251856, 0.8480248695980125, -0.1526268376395205, -0.8064877011967563, 2.061526334508538, -1.213328277789796, -0.45690957419455597, -1.290721963180261, -1.0348937366395963, 0.27446322055031824, 0.8640703879943736, 0.5189188982188705, -0.2987682200986268, 2.593571585608291, 0.2616894039734557, 0.3594913762530375, 0.5774337312304406, -0.3198190472520984, 1.5075535141121696, -0.6456543744434154, 0.10955341175369684, 0.011507861684999393, -0.1350119358112266, -0.5678302567896264, -0.738292444699103, 0.114709013355106, -0.6359382851616863, -1.3034604686875464, 1.197187610810896, -0.33835262498110436, -0.049723530067358815, -1.2510710558959754, -0.08381308740616832, 0.17834661650166123, 0.9686894485870726, 1.7196331412977937, -0.558066193455841, -1.0273500076409052, 0.7811378610986636, 0.8802778502789383, -1.3370853478235696, 2.2478913006427947, -0.7976333769926807, 0.17417714244382496, -0.235449146185179, 1.67602788737389, 2.033379086593542, -1.9004235837743741, 2.2392415442888014, -0.47755029713484737, -0.8495071537575077, 0.18379332082114286, 1.1349453693795963, 0.9900642397859156, 0.4442502465940996, -2.335395165873045, -0.47771686476517206, -0.6422489215144126, 0.5030039301670199, 1.5417357870586084, 1.4363991913819942, -0.9144838190670086, 0.1493551332698841, 0.79113845819273, -1.1963819273650216, 0.20343913587437612, 0.5059380506202205, -0.2667686097218848, 1.7701479436822896, 1.664004302353686, -0.5213633135427533, -1.2016314380681223, 1.673548534757076, -2.0576596622634913, -0.06184337520301549, 3.1090994749721577, 0.48798229597191345, -1.0519232633308793, 1.1246377980816016, -0.6191208581380142, 0.6422482587330325, 0.48303460137621, 1.6388471479525282, -2.190115090037753, -1.0005162956360987, -1.1208760482063242, -1.9189200852274897, -0.48370235284852275, -0.7392327097218082, -0.10263644007896786, 0.01729077391257312, 0.6854393559511811, 0.9049153428389, -1.107555252416401, -1.2205610192527876, 1.3056950696902605, -0.07608485412190073, -0.8396116231720779, -0.5022887538735197, 1.725921769357088, 0.9340630021091046, 1.789650543876703, -0.8400400806699196, 1.1847551150060054, 0.37120964411428764, 0.6134700941719536, -0.8908038877663211, -0.3333615331635364, 0.3077766608526821, -1.609228474719603, -0.9629094778105348, 1.4569317657511456, 0.48271222642203604, 1.569526194785866, 0.31020044399483443, 0.6752945892597038, -0.2779555512399368, 0.7288072985709222, -0.3888270502359116, -1.0920317449248782, 0.546938534744974, -1.8110504226563224, -0.35312166323755223, -1.0650599762244013, 1.1759143516365416, -0.8970732173083459, -0.39280439995134403, 0.6098039044401897, -1.0416953042785408, 1.807488612641885, -0.14402422154688618, 0.7661875774415982, 1.7217882011246999, -0.4414200696258322, 0.7290819878547502, 0.9900420974202234, -0.47070601713728394, 1.182448541414872, -0.7241975809202155, -1.2363664419879377, -1.1136943650906825, 0.8164374303876142, -0.502560113260065, 1.1684330963554326, -1.3985399700382903, 0.2568916248333912, -0.9294763946693938, -0.5772275577683562, -0.2758690668246716, 1.378745685864602, -0.8141470011283695, -0.5857438557115625, 0.788671793787573, -0.13632261976722512, -1.3164709035645001, 1.664755545155823, -1.0637395849176459, -0.30880027387874626, -0.042892917280330956, -1.0074022941568381, -0.5685387137879957, -1.3320043074139374, 0.10731279627598075, 1.153259590317499, 0.3323875620515849, -1.1963528996403832, -0.2527805921924724, 0.37381166294251433, -0.993013057490397, 0.3229174263037322, 0.4191491500208489, 0.3556782102442579, -0.11170017792681154, -0.11446095328332936, -0.5640948477958988, -1.0855788025214772, -2.169797600389884, 1.211061623491777, -1.1584967576296328, 0.6550958792311141, -0.4548378516495786, 0.2507487740201862, 0.19659782053271063, 1.0264025545731663, -0.5296753297736464, 2.0689763621234563, -0.6260919332320003, -2.265474551871723, 1.1144624242962633, 2.191659672936236, 0.9781130113117246, 0.5613507298346583, -0.7197537604766717, 0.7843989062850497, -0.2547052960034676, -2.1625858004533396, 0.6650027327117786, 0.9691791960759559, 0.8253330792921703, 1.0796300935939007, 0.8311905369141632, -0.295079469681342, 1.1850464685410809, -0.21566325504150524, 0.646340237561523, 0.48530241838853627, 1.1278461797136616, 0.27227070868907743, -0.1830684555088254, -0.35672160195262287, -1.8459029865508207, 0.28237505153694115, -0.4888371604074125, -0.7304319354284192, -0.6653106872829175, 1.2359036744657086, -2.0764742340091513, -0.43510440834300945, 0.794553541842976, -0.4137365218360155, -0.27695571170581046, 0.5811095530016946, 0.06354858899718169, 1.6187463461052625, 0.4608600731885332, -1.0498939487804317, 0.2846498672372676, 0.0979668761703524, -2.2941282377704852, 0.6887846537554428, -0.4307274117767771, 0.0495460662168517, -0.4263570627875473, 0.05594710005884477, -0.8842979312210832, -0.5074068415803858, -1.9943806158010915, 0.11654574989979845, -1.952863523135944, -0.28268695410758465, -0.9610757362749724, -0.2602431954724697, -1.6944721285026627, -0.943863556801706, -0.36655273396758553, 0.30471421093366624, 0.5188764741674192, 0.7987164541490721, 0.36656046776348106, 1.7167087779223305, 1.0963565845821892, 0.20559682235198695, 1.1444612845313447, -0.2978843441729083, 0.5901233488595724, 1.1084944623219333, -0.22140270304014872, -0.614732156293591, -0.15106010689658525, -1.8342909301312222, -0.5082250186323912, 0.39127402466526545, 0.7701625588971541, 0.40586069320422874, 2.749885181649611, -1.2441021794568823, -0.5143615442442317, -0.1935814071004731, 0.4027225630982158, 0.06604480874228838, 0.22907114282256671, -1.0905453158749774, -1.0325797275643913, 1.2060984516352804, -0.20359460150418066, -4.072089179963794e-05, 1.6904409915242704, 1.3429025249944373, -1.1026682479227279, 2.1609162463711233, -0.6130222134710502, -0.2918426397301532, -1.7010560050476264, -0.09434738919936911, 0.6188852113614302, 0.04383584811116714, 0.9271747913460908, 0.01651523411173324, -0.3494779735385363, 0.5902125182481257, 0.09606991778397907, -0.6248136455375263, 1.4534152023157825, -0.8315807191923883, -0.24059612945778586, 1.5466524834679227, -0.02171627387983458, -0.8913354528388343, 0.5712452845502501, -1.541821813337783, -2.4066942933731665, 0.07710406974784048, 0.9912158967828497, -0.002038908361057272, 0.4410916430659148, -1.6043511789260572, 0.7546930442033564, -1.6666020414886342, -1.5035280723383078, 1.0142804442340914, 1.7320402842629776, -1.2062558322055301, 0.35842698456940414, -1.2380466615650687, -0.108044561422803, -0.14918025202412571, -0.6722166449949426, -0.6341772677733285, -0.6702864012835322, 0.444602268947102, 0.7548938558244476, 0.22674168299025685, 0.8485949349734454, 0.1691483245855286, -1.6793310770079362, 0.24561220238478124, -0.37168621189205686, 0.015685380100237248, 0.39178363376230196, 1.357712581957926, -1.0438131701025974, -0.6833095162176938, -1.0415899757576907, -0.3117682025014452, 0.8256065125615027, -0.759021249153833, 0.44047339237128197, 0.950605466611417, 0.3812861900592196, -0.14476731272207644, -0.624295533563568, -0.383490819722338, 0.42172540096917455, -1.0962141827833998, 1.1684100102001886, -0.24752918295181014, 1.2213948074170182, 0.4436768496977483, -0.0804293286600998, -1.1928917635534946, 0.7909915342069179, 0.009953103683747152, 2.1261471393543854, 0.6179449405348622, 0.15987726171551384, 0.9489299405913092, -0.03509020999636729, 0.30651475518733534, -1.5715018062077493, -0.25345934010917454, 1.2636682265157224, 0.7156481430722987, 1.0001283636575908, 0.6895721093930087, 0.04382574783690515, -0.33297199866995353, -2.150323807631647, -0.6181287524011554, -0.25155827869211156, -0.7319095834167684, -1.0210842954728383, -0.3268045671013034, -1.1183776270097912, 0.41015803034584136, -0.05575909775288084, -0.5290201556786367, 0.47168919923912467, 1.4787902215005702, 1.2068573437045804, 0.7988782326733854, 1.0142580882417351, -0.2163327794131361, -0.49074464454681865, 1.4933446637587755, -1.300112450408706, 2.035740599770757, 0.6211999769623854, 0.044895870478301264, 0.09743012821885146, 0.6096468722796745, 0.9077319751573393, -0.5649348701171294, 1.9851730234430631, 1.739145484640632, 0.5269782259733837, -0.7240633718430128, -0.6031044902601432, 1.4463578190863475, -0.026375497568093598, 1.3715723175569854, 0.015681116973863263, 0.4801515181039447, 1.3857033765724547, 0.9348462645571283, 0.280869978472703, 1.3538998683991057, 0.3302532326532366, -0.3908084751647982, -0.7245550963404139, 0.6446519593142709, -0.9111250700296318, -0.08248576913469959, 0.33883818389317477, 0.9549745260249349, 0.45031609082838714, 0.7753594694559266, -0.06488320249863677, -1.0983581843982184, 0.36160297197482116, -1.5244703908405917, -0.6424815612349606, -1.772066315364245, -1.1183012025090746, 0.19930037670426692, -0.3353663135261247, 0.020881951736554338, -1.691365118327863, -0.3412573862841871, 0.6653733213554459, -0.11656461871215233, 0.6263545352482777, -0.27456409986982167, 1.3014614019352928, 0.09027442569918949, -0.9366941559966495, -1.3981741757533963, -0.8611790270104884, 1.0662235049025368, 0.035742431765634915, -1.1727501475714581, -0.5697159165401481, -0.4444131981621379, 0.5730746779949428, -0.3066066624200415, 0.49095871239120464, 0.3898247231276429, 0.8190915980872419, -0.09074637966086427, 2.760923427473667, -0.2389674871228322, -0.03990654375409767, -0.28875945820094623, -0.20610985796958928, -1.2205258945183792, 0.7159447833556983, -0.2891211428758544, 0.8879796754193099, 0.7917140435582809, -0.3823140379695697, -0.6829015655146352, -0.5803644393796237, -0.34145161479866887, -0.05693312875891346, -0.45158239941449335, -0.07968289533698983, 0.3483140445440491, -0.17465342744575793, 0.09540877498077414, 0.2877718011024832, -2.026426583244732, -0.7939222129322941, 1.1748210500972567, -0.2367088440630788, -0.44686344340884354, 1.8439464887960246, -0.3564763706248751, 0.05589020469396914, 0.18839236554334335, -1.129557992793094, -0.3413538700292178, 0.4797562827650706, -0.675661347123285, 0.26664851757262303, -0.6409088789513646, -0.16312199152677173, -0.35493549913773326, 0.8659822514365855, 1.577140760596657, 0.13989441966744684, -0.5024231270482165, -0.32704855069139954, -0.12759574316453784, -2.2755909098749147, -0.32395520548905293, -2.1853430307880406, -2.1656599654862094, 0.7225291115307558, 1.3728805271103526, -0.08492011103787583, 1.7396220786233139, -0.4080477804571555, -0.7966606636871325, 1.4297143734187845, 0.8706596388198834, -1.2150665974066048, -0.2722949380455641, 0.380809499009875, 2.0820841107187777, 0.7936662907785526, -1.2966689900957, -1.4056210215949427, -0.044611159099221684, -0.36688741558625976, 1.4262329377754064, -0.9916138464954344, -1.8079051580543863, -0.507995611279715, -1.4847228994422883, -0.3344843548948371, 1.3276191708626175, 0.33857231108246877, 0.5423839311861147, -1.2806382305863837, -0.3481323799630057, -1.3149269591591841, 0.6436517994801922, -0.591164153422839, 0.09631754617984445, -1.0885038936682532, 0.23889319628947694, -0.9861181873345142, -1.5252439683646204, -1.1673553274143007, -2.375947892525805, -1.6086124535033761, -0.32568505636651685, 1.4448715963772019, 1.5464161827749132, 0.9627437024408244, -0.23445676435883828, 0.7350360209167888, 2.295759053908698, -0.37412613902122144, -0.9630536479704701, -1.0543367030853559, -1.1791141934561762, -0.7293827888439487, 1.7675052392407269, -2.200159481382773, -0.9084505982389818, -0.7234815638339784, -2.6246117770645006, -0.3182529626440337, 1.6334378111620267, 0.43591865031790755, -0.5380668408086439, 1.1048681707045338, -0.26197248435429804, 0.4492485878269723, 2.6998955332585703, 0.4460328771465598, -0.1383621070410258, 0.6654363131450576, -2.658659822971379, 0.34043413938782807, 0.07764398872247902, 0.8799260715922729, -0.5405197319739906, -0.27029756009792905, 0.22892142611093683, -0.39628444950686137, 1.0303008350597662, 1.2619485798088448, -0.8885272421815144, 2.2643652884748464, -0.8936323245371636, 1.3991198848358128, -0.2100186245699165, -0.5504120616046244, 0.11003444653759614, 2.361402650980533, 2.3035537839379194, -0.16310150445258798, -0.6271849249051357, -1.973410779117263, -0.9304693576864954, 0.16589996435072968, -0.7077042964124389, 0.3472534969728803, -0.5917223348787624, -1.2940437309505808, -0.139810037294445, 0.20833074492726164, 0.04229654017070134, 0.32993278858014885, -1.4561099837560938, 0.5432806854753713, 0.1670608441691742, 0.44449783133263393, 0.7968813991622746, -0.5583850535717375, 1.073181488936458, 0.572479245058695, -1.20296141966893, 0.06453228081554403, -0.3185105268601235, -0.7327634177873339, 0.12686862281506792, 1.0978284711649757, -0.25831523103018644, -1.0721016514118322, -0.649235353286247, 1.3042440765131862, -1.009270821978372, -0.15834031411860455, -0.3451789385117182, 1.5466528216651858, -1.2516071594074771, -0.9572668803184545, 0.7240671855911696, -0.8445119017362047, -0.7990699388157002, -0.6211737635354802, -1.0428743846434982, 1.1358205389259286, 0.0043778215276040495, -0.00381492282914886, 0.2137695026919597, -2.180992397539939, 1.5511445149345773, 0.44087958882410777, 0.5874493044149378, 1.6287658386748423, -1.1849890912919487, -0.46850582053614764, 0.4971797100064246, -1.249782036605346, 0.17302994087984025, 0.5976951326792032, 1.003954930217495, -0.18569450808805213, 1.2382119197179637, -0.060417220712651966, 0.6598264050824683, 1.1896389978441604, -1.6131852486256297, -0.05892892232015519], [-0.0460684182011831, 0.8877577049527423, 0.4307228472194378, -1.531398887170129, 0.9999925946184623, -0.41225186670992475, 1.2459270580177473, 0.29254416973031006, 0.054082955803916685, 0.35457605051542973, -1.4995167423033384, -0.3531374179353832, -0.7990856761141422, -0.005057377264128244, -1.1106043287745722, 0.23139007207868265, -1.987224218501641, -0.5592673523194392, -1.229522012942745, -0.7389653677076725, 0.6156290987051402, 1.751298290451203, -2.261897161138811, 0.20648586300570462, -1.8628124141434932, -0.4938933861183404, -0.7190104446817553, 0.10520643411602405, -0.6119559715880176, -1.5647289787226721, -0.28924892540670183, 0.8569245870666214, 0.4167098065166111, 1.221048813320522, 1.551654907554609, 0.8680755319276086, -0.09744373541855342, 0.24799813168318882, 0.3642653786491219, -1.0132216131036695, 0.26390498043094235, -0.1705267194062763, 1.4686063899893975, -1.1071739010189812, 0.1648271074070368, -0.12475702740809598, 1.4873579246144784, -0.5082505477923541, 1.1566922059827538, -0.08209805900577745, -0.41478473572856517, -0.8677391039724902, -1.8305445731752092, -0.22213394690501143, 0.17144546723927992, -0.16658746938941063, 0.48734074436539815, 1.366725534742128, 1.0215841662043885, -0.03145902463625278, -0.8630510527613543, 0.3213900093594415, 0.7121310111875014, 0.7684998534038165, 0.4418726714206406, -0.988326091503727, -0.3303503755462063, 0.5600701952305958, 0.7574665328523138, 1.6996887105397733, 1.2709192967787502, 0.7267600849250598, -1.3555933769787938, 0.24562306630351408, 1.108865941100769, -0.34409541685499634, 0.5778874556987846, -0.2940601424026892, 1.7148664674966627, 0.9221559504625869, -1.0215069039155575, 1.0606591227978062, -1.3582547261098872, 0.88000891417432, 1.5324736459316333, 0.3933085113917236, -0.12093000202942183, 0.685009161431599, -0.20573963019937416, 0.9622104894903265, -0.635384201956504, 0.5120601808632723, -2.557076862405656, -2.0771902742266, 1.202520211979361, -1.6553628493067145, 1.1209152167162189, -1.3539232812525306, -1.401311686051383, 0.5042777087609671, 1.3071853479515447, 0.36448959041674106, -0.6155249670738157, -0.597471628016444, 1.1478154483617278, 0.5045224067632909, -0.06384426435046159, 0.2908481302055385, -1.073897901233324, -1.5626806929124015, 0.4116572203697601, -0.7500822399948713, -0.006751927376468795, -0.0543282661098288, -2.2051198417266584, 0.015921141181636362, 0.43817320292670225, 0.2945874196257783, -0.6191580658269948, -0.09676418013131244, -0.3868603294712845, 0.5850384580317585, -1.3691468348267093, 1.3732335756213698, 1.9499892595344177, -0.09222930762356184, -0.34276162817257805, 0.1327777299276223, -2.5699309526889156, -1.8205251486643257, 0.5367751398862906, 0.20507071214045616, -1.0327312628366632, 1.3268228566180307, -0.12333788883547114, -1.0083851385357876, -0.22942221943588093, 1.2741249013405371, 0.5251801934777026, -1.754825278323732, 1.345387173158563, -2.260599486818234, -0.13468389016551152, -0.7186729593540392, -0.21952753793913313, -0.7076361889560316, 0.43598932280007224, 0.23625796403643667, -1.4777323766619255, 0.2038197277560841, -1.2847863182122605, 0.31249079831187593, -0.6706501103741992, -1.6131273758794704, 0.6560622542426917, 1.4799609647092897, -0.18580650507909746, -0.04511768401329079, -0.6941637237429527, -1.1879616280419847, 0.11653488560089438, -2.6205467488223135, 0.7071599875067516, 0.9331355651492592, -0.051807312236910416, -0.514811409343317, -1.97172412236694, 1.3245204168342855, 0.07448166375919814, -0.08975568054512635, -1.6420463910130745, 1.7024332800011432, 0.4301566270899687, -1.2653866137483523, 1.1239878054926866, -0.9615335706669011, -1.3669190171491044, 0.40539358127133224, -1.8796137666727437, 1.5166018433283912, 0.4884400465105305, 0.06549009208267562, -1.8549099005703562, 0.5409772472604001, -1.2098017012891695, -0.038795561852377314, 0.6927321570892893, 0.01212382771563089, -0.8089418109523647, 0.04068318487620875, -1.5297509809502343, -0.8951488372631433, 0.13592485060782356, 0.29063555728269996, 0.4350182364246402, -2.7671345402266043, -0.24654070137273162, 0.6573231974506156, 1.184888711046181, -0.11410440735829634, -0.6826689186334559, -1.3601279367362833, -1.4825438092650998, -1.134157348360475, -0.19755889924079528, -1.1989118322321204, -0.34173649337836187, -0.504784516756634, 0.055220828399850104, -0.21496301199480175, -0.12195641679375811, -1.0714006784684502, 0.751274422853001, -1.6852615827635673, -0.15030811916138417, 1.4633218228134666, 0.7315369137251216, 0.6163570050375501, -0.8530169757378426, 0.6327273011638596, 0.08295666859216604, -0.8593125808277309, -0.7827270195248347, 0.5663634595471031, -1.033707745015083, -1.4402133591446933, 1.0796662757206401, -1.000515349585257, -0.6882290765214932, 0.050989947001320896, 0.4629404384577787, -1.1403137611249583, -0.1654508487297091, -0.8804658356525239, 1.2932405167102816, -1.1695809367368184, 1.1017353254757896, -0.16770250576758816, -0.4186535397567389, -0.7769158191674616, 1.3644302628532716, -1.774022933501394, -0.3845774567128039, -0.0007874272255323227, -1.5663597901174084, -1.1886501178198008, 0.8040981133910468, 0.5321635842099287, 0.8517066410531823, -1.4007039144028803, -0.9779751991411519, -1.5855570451244252, 1.9093280873416718, -1.4145959134859483, 0.9045403721806937, -0.7470429606963371, -0.09285816729827757, -0.8229515706366572, -1.1886927309825492, -0.23638509511596548, 1.4918505385182117, -1.204377723989618, -0.7083705593078058, 2.224084566199327, -0.5249380813285988, -1.1643549219521037, -2.27040243620433, -0.7342645004551455, 1.0278757982271527, 0.4300109775797396, 0.10532056524080866, -0.42434134820290564, -0.8911760735530445, 0.7511711884006168, 0.3504461749224632, -0.32682775300252054, -0.7624250203228534, 0.7435365327468973, 1.0548120978008233, -0.7075219363983852, 1.1382453261911414, 0.10495895842246304, 0.16538981721060025, 1.4370308026686776, 0.14640372321935974, 0.5062281110980151, 0.6274748887014389, 0.4786224828709211, -0.33680945015267844, -0.07802187746229085, -0.19483215586649774, -0.5982531704372583, -0.19530236866052675, 0.02550309089426815, 1.7664870557236436, 1.0812467526057736, -0.20493810247117836, 0.4758867423933811, -0.31098850258406247, -0.7511341531148431, 1.4288103285542866, 1.0255890462443158, 1.0901750417191498, -0.08632230287752964, 0.5833553384679647, 1.022206986724343, -0.28457034604056, -1.0361956454609258, -1.3404213521268118, -1.4212458630037288, 0.1943695401058535, 1.3298319680417348, -2.298362369026827, 0.9771465678581868, 1.091962897088773, -0.551079283879194, 0.377849582979252, 0.8441895752161822, -0.2574284627510594, -0.26261101313354374, -1.0396178039329809, -0.3832775602679595, -0.15394711796757563, -2.275544663388175, -1.507050585928938, -0.6544550951193137, 0.5071302609281197, -1.0054853301014983, 1.1538412704202485, 1.471880954963061, 0.9918662991424648, 0.012900918483404107, 0.8051792175322958, 0.016168923630332514, -0.6579327140411889, -0.8253853223755461, 0.12360591531227197, 1.1382939495009388, -0.6839133200017282, -2.0352414861346912, 0.26808621056483084, 1.3927425502748665, -0.4510709170429357, 0.20738153344729926, 1.6225118455991867, 2.2532055608911437, 0.26381778423915225, -0.20452624293092997, 0.8544601557416167, -0.5231159571590044, -0.6864031820935734, 0.959459040197659, 0.9890093248230879, 0.4817854098349762, -0.24892245869241508, -0.6366277548585565, -0.11925424036144512, -0.794661005654762, -0.5495615469844185, -0.8315228693145983, -0.6040341297784111, 0.41275256595480386, -0.6387619623676342, -0.2537752726355181, 0.9037538043784324, 1.598416462590994, 0.9270428579733769, -1.77869765204984, -0.6322730447312589, 1.008200685283847, -0.19126434104949805, 1.1868312011881776, -1.1413344878210565, -0.6130418699072602, -0.34286117452422266, 0.1135701951575085, 0.9630495161295217, -0.03246183510920887, -1.2782863234475468, -1.1068452211358437, -0.10379800355867776, 1.7068249014620107, 1.864793691526367, -0.7215255052288839, 0.35217312196764977, 1.0917660326237224, 0.27593080016637933, -1.7051955093565776, -0.3658984757772318, -0.4951485934806736, -0.5854133818523091, 1.3229265722991874, -0.8362916234174531, 0.6057887090076268, 0.43770539254451224, 0.4720801650343049, -0.49645281378218453, -0.18622580222147808, -0.14591670332218518, 2.3635771457426578, 0.009521164381081448, 2.0774363390144037, 0.643580344872422, 1.4808016686879684, 0.5305503707751731, -0.4284587336359291, 0.5599955909860975, -0.9725780555717121, 0.6389618806990393, 1.7540252666219942, 1.190856439195232, 0.8863633720942745, 0.44024859332631333, 1.6589925594075463, 0.9361296185860554, 2.360224640433457, 0.7689511890003021, -0.4384223668912243, -0.22754190000308147, 1.0553745196570663, -1.144552559261537, 0.41531489469548316, -0.8134697484458779, -0.11123743526301869, 0.5625187559638956, 0.48954715739481475, 0.9145426826042966, -0.6547577701005886, 0.6347153937575343, 1.2654127716885764, -0.33701443464276004, -0.28392636740295996, 0.2667243307950768, -0.5621382026752033, -1.043384930297418, 1.6873809329443714, 0.7329008011709088, -0.12705212644266098, 1.0660756536920495, -0.7665468459464336, 1.0814124503872136, 0.4843857718068673, 0.3510094371364677, 0.2682373764869308, -0.949839072843167, 0.028608173431993806, 0.43911377464584533, -1.0931268707715784, -0.20788967372052408, 1.5885876229733076, -0.04599446713983148, 0.05578392364648294, 0.5607619859666404, -1.1137080262452772, 0.9748570820562978, -0.44092607065545114, 0.01252445889432234, 0.4761702977982019, 1.4736484805884784, 0.7038664928669541, -0.7049008304745171, -0.8682568633688948, 0.5292747918260736, -0.7130708693805021, 0.1828597250099347, -0.7343344314313762, 0.5740982760778794, 0.2090518252867095, -0.5536220696065626, 0.6353133413911751, 0.1403085778381891, -1.456563467975742, 0.29115453495494875, 0.9751797592212968, -0.7360337794085468, -0.4101446582494447, 1.9999945494016982, -0.21773057236227766, 0.43895861252503765, -0.47682827286973894, -0.5310391778607387, -0.27552477115623153, 0.34269617834594407, -0.13062933654922806, 0.6730037161151611, 0.24118027050336122, 0.4352777086829796, 0.8818916332404926, 1.4818084382785917, 0.6565887401552687, 1.005389948163877, -0.8212798138683947, 0.2998212288857067, 0.07266515239768145, 0.9278554795616499, 2.116665780879866, 0.9441515520354637, -0.4318676924253129, -0.09359236580058612, -0.03226245362842774, 0.1479750219794051, -0.7353905907468179, 0.0866073671708033, -1.3780900095672368, 1.3516335562807742, -0.4978581494446252, 0.6382073322789368, 1.4125017077637962, -0.920712861091865, 0.8811478083836226, -0.14593799196222546, 0.0576982229270775, -0.897138580873679, 0.052425134832483435, 0.04297108216944362, 3.1865974404129336, 0.602430685878188, -1.4248768770432008, -1.258107162191833, 0.45417309396858724, -1.1254503108650487, 0.39607809691085893, -0.08139611092258366, 0.5101394342099395, -1.4832469256130836, -0.17045361997555247, 1.3926381651389421, -0.9487481952195996, 0.17687005661644406, 0.08582586433578007, 1.4448839810893939, 0.20913776898514294, -0.8693622292344039, -0.19101948897377946, 0.8191529146058879, -0.10282696609050394, -0.9711369560578504, 2.3025765248260646, -0.9173151977155166, -2.049173273525807, -1.266940983020517, 1.5263958378018843, -1.5042831603599611, -0.9207325915003783, 1.3690442410948973, -0.0613643598650333, 1.6782187093407723, -0.7811846094309023, 1.7492334526129272, -1.197022558395924, -0.29090867702946704, -0.25646309052964555, -1.385384557291839, -0.960975787945532, -1.6950614616620403, -0.10799813593044896, -1.3011718108215247, -1.417119818602219, -0.8634404350042703, -0.1351989249661178, 0.23842461946450433, -0.9259552649518769, 2.3982718877242757, 1.2968554133182248, -0.09763561454933423, -0.011186766172082582, -1.3732488786384833, -0.3552786232632547, -1.484730326671732, 0.05017197836162796, 0.029805547304460698, -1.4227934356743788, -1.3035882036520796, 1.6755913633908366, -0.09187310717602233, 0.00933844722263648, 1.789473795732917, 1.0784863373032625, -0.24381513811561165, -1.2319326043171377, 1.4388000053456638, -0.6398332084710987, 0.6168727072093874, -0.840919402019018, -0.42032799166100077, 1.5909983376398062, -1.1877028743257692, -0.8982195969802802, -1.407784907072573, 0.3015743609041419, -0.6852681676891149, -0.22644982294089996, -2.5305685765817834, -0.948423429128298, -0.3986953935802378, 0.6381429213227698, 1.38473017175958, -1.4113425292105184, -0.526802282292275, 0.2836563611751614, -0.13015646481377974, 0.631389774215805, -0.3148471021465969, -0.5731992610119598, 0.41607296295470886, -0.38466569310144993, 0.9144962788550239, -0.1931187501599427, 0.95636290298416, 0.26076372600401176, 0.0015295859127278176, -0.6234646143953749, -0.2824932225893979, -0.9358383207125107, -0.3065688146392727, -1.799436344030624, 1.0079611639010961, -0.19808390898196188, -0.8549345538641755, -0.2401314478899416, 0.4858665028878888, -0.8159084734310083, 0.08739700666729203, -0.4488814747118921, -0.2955900692920745, -1.0324939136015117, 0.5719717076716733, -1.419190536170408, -0.40668886815887473, 0.9564195346370281, -0.8074106605747555, 1.1470281506787328, -1.5201319184803948, -0.824114612118663, -0.7090432394771125, 0.7395013756467621, 0.5490478833849054, -0.2186258401775554, 1.420874927333156, -0.7079783989640313, -1.071772580974954, 0.21286606917905776, -0.3939390799045037, 1.2280212141659534, -1.584599120944989, 1.685734967246, -1.4767340636490616, -1.0428761213246336, 0.11438469463670908, 1.1278666029449778, -0.6485739915161961, -0.3648780446688636, 0.3211210998411295, -0.03860610533333096, -1.1713057387182804, -2.621150421331553, -2.8590220520330907, -0.08773105881623672, 0.9708719768705827, -1.4702725039214173, 1.1033368058654338, 1.1324451433160272, 1.4249786051451316, 1.7105668959693525, -1.5726305809867793, -1.8955174876359917, -1.0796903699474676, -0.8026489394725448, -0.3056668745838292, -0.01717380428572555, 0.5406178550505121, 1.921653098685419, -1.9653791083748955, -1.009894996828645, 0.4952862786594225, 1.2963907412004236, -0.06494355054876529, 1.3905469004116036, -0.18953555654233986, 1.4872704685583022, 1.2728183071306907, 0.18433804270567603, 1.4636184952324334, -1.3737426909705202, 0.5982652208241221, 0.35402060602896207, -0.6163734979274684, -2.1342543004210395, 1.1643536453606649, -0.7828059637536502, -0.28185081412115676, -1.1520436541372518, 0.4094072814918687, 0.8961127267744242, 0.8035121754169885, -0.40975809638664923, -1.5829336603782382, 0.3218188718521803, -0.6023316709876205, 0.10616314887067767, 1.010320056077173, -0.17370785326343033, -0.9377219449645932, 0.46194121266668986, -0.2768237576064184, -2.06437436939011, -1.1166755346073984, -0.4860752427279838, -1.3559114472536693, 1.1065161819030245, -0.16330145496071347, 0.5824960490943543, -0.2216547032838625, -0.23724738348267221, 1.5228848742012664, 0.7924429668509283, 0.8045685302338236, -0.018935259246109764, 0.328122029989559, -0.6284145316921981, -0.5586446146078154, 1.0323088175594766, 0.2591074246998874, 0.9882370380740888, 1.2844807093695352, -0.382449649299661, -0.4729977000501908, -0.0014855943063953238, 0.4970095734665407, -0.3598841363315403, 0.6976568348300011, 0.501117696087181, -0.6376794603462684, -0.46687677028138236, 1.9037446453166178, -1.312239595502062, -0.530373514211814, -0.22341139934507676, -0.5263938867452406, 2.3531389079215517, -1.1881872562435425, -0.35792856867155964, -0.7226282986163518, -0.30535389972879534, -1.45620530726075, -2.1448101756531788, 2.3001704365161344, -0.01487846256138646, -0.27477810724858376, -1.4088435015204557, -2.224673419440284, -0.21495898989879025, 0.07035772589239682, -1.16181352959004, -2.1337363433282506, 0.18440304957492035, -1.9407851938635179, -1.3589401302684365, -0.5316332850358817, -0.08127299530658652, -1.2567379613142688, -0.528126808247519, 1.1965057615497394, -0.015463248938281245, 0.37144698920846236, 0.8453063079174986, 0.9103614393696029, -1.0565146338463351, 0.32266365792317186, -0.9649567623377162, 0.9519144836702498, 1.1792609755405905, 0.007882360513292693, -0.566708372287091, 0.9838323560207167, 1.204839386085964, 0.43858188263696873, -1.031612157439397, -0.1746794343637227, -0.4324680231880611, -0.92358556260145, -0.14183922057887988, 0.02253711158449675, 1.23882743930306], [-0.27504692557964683, 0.48105749542742393, 1.4377168964597953, 0.6152194788647154, -0.33805274784075257, 0.5356945888959194, 1.5574954045981477, -0.13423499737173067, 0.38219703926309995, -1.524988757651926, 0.6989270727492324, -0.6292876360707691, 0.4803200251211809, -0.47324182353563804, -0.27514447822055893, -1.0513367070222444, 0.7306843410761884, 1.064422542224099, -0.556808712878473, 0.3756625554282122, 0.28471092545740995, 0.04606977018827792, -0.28748541403342237, -3.074471169786367, -2.398102736875705, -0.6889976895780757, 0.622999128333427, -1.5088440569014956, -0.28649464488574455, 0.07738814827414875, 1.9973603964950286, -0.16940389032945938, -1.7379293878700819, 0.8401588478338752, 1.0470082402067524, 0.11138404855576114, -0.7951631833684142, 0.7580026730636031, -0.4603109832688182, -0.33895919891895376, -0.4588140576441317, 0.4542656687020149, -0.23332270663706084, -0.3362666694385737, 0.5057005438368136, 0.07542781678204924, -1.6004220453058446, 0.6722248068906367, 0.282803336388579, -0.8493661892013881, 0.16186763328419457, -0.3913398252793335, -0.27358290313790196, -0.8398106170652692, 0.21646725550906487, -0.36211993523467534, 0.9602224112152603, 0.757110437855, -0.16062340209136747, -0.6120753129086418, -0.8482967387452292, -0.6859599346101802, -0.9851277417269482, -2.0507052805728554, 0.08364713579609634, 1.6562133972565871, -1.1936601492942023, 0.9117996090028359, -1.1590446960322445, 2.3807781157856556, -0.034392773556792856, -0.07448757905754624, -0.11210374541969295, 2.173292127330229, -0.19261281134212127, 0.792029338161404, 1.0963929919359454, -1.5014374937089963, 0.15447285306886885, 0.36910453508936636, 1.29727816998876, 0.7469907583769152, -0.04103272008471567, -0.406554345834683, 0.31730221365971073, 0.7776482366871218, 0.3202402566999993, -1.1252093652440518, -0.7958741914270298, -0.5613097646256777, 0.45362437731984884, -0.3607618821363822, 0.6282004094550437, 0.855057261224914, 0.3890126511935778, 2.1915307624005527, 0.19483538833500147, -0.2783709836475043, -0.10449213828770347, 1.132783433184723, -1.0401590768449238, -1.1862490971873079, -0.8840892020331956, -0.2376255587984128, -0.4778556273494153, -0.6925103752080027, -1.2915807663781844, -0.1569012257237916, -0.7654591958363436, 0.3842145368280155, -0.23822565439322355, 0.7607432227880065, -0.1334195840125157, 0.21278656439202534, -0.9749891097203268, 0.5630033804748522, -0.6290768774536573, 1.4763351126762703, -0.6861256444543871, -1.8376767990015568, 0.9709408551813651, -3.5750944460110468, -0.6892593279455904, 0.03927696698533061, -2.122863405550666, -1.6911638861501745, -1.0082504449408558, 1.7651695986291356, -0.45564593040462664, -0.3767658449217065, -0.6259806790128041, -0.8128542905419845, 0.3034235063732063, -0.06042789986325122, 0.9735036638446091, 1.3028727210544917, -1.3290479458867805, -0.7856694240925814, 1.3336285407365127, -1.1428300448331896, -1.8439218666151593, -0.028616545579901044, -0.3852845707982972, 1.359619105924214, 1.403535247385452, 1.004476579840407, -0.7615814077743311, -0.3037646901606262, 0.6196069050077245, 0.22066496491490126, -0.14494359818111446, 0.30149899401008806, -2.3393090910436403, -2.493451207127777, 1.3505370222575042, -1.693133297209301, -1.0116510338472533, 1.203107388954292, -0.6715272241513252, -0.8056169798144711, 1.1514652873835025, 0.4224510953029121, 0.8589462230579736, -1.3813851490228688, -0.07053067961410724, 0.6074072752325115, 0.7484679499042407, -1.3078526440114016, 0.9617704833082665, -1.004543479735547, -1.256407706180505, 0.16622493589916804, -1.8253711190960271, 1.3954632600502714, -0.06844317837156502, 0.199810606197912, 0.37734280998311953, -1.4585353882400094, 0.2989051672437384, -2.226899946674014, 0.09631677454344394, -0.36194672927786053, -1.5507030150322265, -0.4393811363749858, 0.7118491494906466, 0.5675760250075849, -0.2664511509741442, -0.21846339496332717, 0.2599212714944206, -0.30939456816287164, -1.1139803403058972, 0.2251278528696499, 0.20690214032432158, 1.380432174641196, 0.5817415586582217, 0.9466994974346499, 0.2142804873752912, 0.8566308588393369, 0.13422423671147843, 1.245676739542849, 0.4569384418077357, 1.1428123206800116, 0.9623326035732005, 0.11468703859475594, 2.0739207304489575, -0.6815231044001301, -0.9339529470527628, 0.8439905899924975, -1.4777113421473347, -1.2697545929236111, -1.3035264533036999, 0.4911863315859122, -1.958209772106495, -0.552625243618145, 0.5837174832136091, -0.05835187813481862, -0.12561222238017503, -2.151793607632803, 1.1019328767003298, -0.09679939870524787, 0.620479796500439, 0.7123772657940441, -0.9010663186714952, -0.5783557633376426, -0.28268385643031546, -0.619823020670838, -0.41729311070417424, 0.3373945797334468, -0.21513161482890417, -1.9523513805094979, 0.19834533801589882, 0.6146962150385068, -0.21245938761956648, -0.39206310719377424, -0.5063153205237315, 0.06844931458532624, -0.44322310317108654, -1.0628394595151058, -1.9745244081949012, -1.5347351664215703, 0.45867042269625913, -1.8974608273031228, -0.5428942543426866, -1.7845695839600997, 0.9580666520697488, -1.3477837932930077, -0.562711604225103, 0.17572118783355814, -0.012351221307058282, 0.5084826667496288, 0.0055181702254813204, 0.3217223900265773, 0.6462173093213909, 1.9655791443689565, 1.0560308930958282, 0.06078222473003494, -1.700492197949502, -0.8273389643987562, -0.2819596740407742, 0.08898740164800376, -0.4560338586172713, -2.078761858215445, -0.776515217652804, -0.6876081608750605, 1.4805054662820918, 1.5164538243532832, -0.32612679561430513, 0.9457383380054488, 0.15846724635446424, -0.24587355427990767, -0.027689878547465976, -0.133947295223897, 0.26375687863631003, 0.5605611542334417, 0.7567179619669752, -1.0873263529077613, -0.10956315854692428, -1.6962366764981898, -0.43551417286552235, -2.024968522977774, 1.0170734416645324, 1.0785635614003257, -0.5513121610453098, 0.9364419577801635, 0.6612160620443093, -0.9580338171781405, 1.2463442820148425, -1.5595292215359502, 2.1452965686301004, -0.4571839564160282, -0.08205012394946484, -0.5881244847147994, 0.40714856655491627, -0.8441788886857425, 0.4677375145628042, 1.413148104045302, -0.1040847502237761, -0.45051299170781384, -0.9763604704169264, -0.11400475311736118, 0.38803900465795493, -1.0040808505997945, 2.178776471239248, 0.3272756078803183, -0.4635686241083745, 0.6751861246492935, 0.5744824802290678, 2.0163987967253383, 0.43237263934943304, -1.6430469373385201, -0.19627881921847345, 0.6756357540331969, -0.24006889702504888, -0.3637168321425839, 0.5407873910582907, 0.835583162473177, -1.488250349362496, -0.19179606880079797, -0.7188031281471832, -0.6123943026538072, -0.9195701037734227, 0.4398262065329021, -1.2844212411506282, -2.177601314965742, -0.3139467909095467, -0.1757101109164239, 0.3079214999759716, -0.23734275091821816, -1.2304795526246641, -0.645515455107627, -1.0364588304694426, -1.248230357079874, -1.354921602420122, 0.20908536148915854, -0.4584699366292842, -0.5101092964111078, 0.8486168474092473, 0.26851967822009387, 1.53368792530465, -0.8348527171274407, 1.7796594899601776, 1.3075736548866792, -0.14835408136471467, -0.16528122859736155, 0.004426530988551281, -0.00046065869545595294, 0.5677126339973434, -0.597840812004917, 0.46006415373770704, 0.6441506290417853, 0.33419853795622034, 1.484985433183112, -0.0099482969735924, -1.0963563563996142, 0.6434936587707742, -0.9475447716640457, -0.09003709996499905, -0.641720967024133, 2.2145491008710003, -1.1170303331832556, -0.6569405094519525, 0.1212300001809251, -0.5189271875251227, 1.1753406821244297, 1.1400998220932443, 0.6721927609357594, 0.5265120201034059, -0.9208230750154905, -2.5327836260407897, 0.4692430055005366, 0.6309817625064942, 1.7157644426200696, 0.08286324580645256, -0.8166874725866234, -1.2568986935596322, 0.03948409042238281, 0.3777018828314202, 0.33097390332167403, -2.5577770154090387, 0.16942984175788778, 0.2937537202723548, -0.8628422872753431, -0.48326007255132886, -0.9318210177190486, 1.26511428958469, 0.4816767673461821, 0.5627736196655473, 1.0393525408631274, -0.4571804839222856, -0.32825059456164535, 0.38305731051211944, 1.5669426268630895, 0.7052902349375796, 0.9932550301337767, -1.261133181028852, 0.8149020576113238, 0.16971402553732115, 1.919867593362356, 0.4490041804427857, 0.9471220218573331, 1.1298756187206709, -1.5027642216083223, 0.4127449484318944, 1.6882743482013196, 0.20360574243712037, 0.8217868950420796, -0.448660397422547, -0.23771887013390458, -0.8297767360682973, 0.05551871968648303, 1.264309781477827, 1.5787202518070342, -1.2336388218195113, 1.1472202750385807, 2.567575005352408, 0.14193397021962265, -0.29421243412405373, -0.07944831573419828, 0.5510704155970712, -0.8786776836599779, 0.5839333990171902, 0.6532685170369142, -0.8321339374708699, -0.19370196438821094, 0.8601548084538354, 0.08667118495667994, 0.04243820838161405, -0.08547537866143037, 1.8884834611543837, -1.4339743669251923, 0.24717372118608677, 0.9304546883342057, 0.44821271070967916, -0.32773163950882495, -1.5061441660120065, -0.13839151667763247, 0.0033480757511946202, -0.3493839100041792, -2.057245804879652, -1.4210785506983277, -0.17812834251684076, 0.888993494696745, -0.3023631864965076, -0.5735547198485093, 0.6626303876784794, -0.2491213328033204, 0.8692250409142359, 0.8072100182080036, 0.18236708642002677, 0.11694040454479618, 0.5228504377939658, 0.9972708447184607, 0.7557448344741927, -1.7582078808009087, 2.393205842086032, -1.799624466118315, -1.4240709196155295, -1.3611356074987795, 0.03388411043716347, -0.01783687126470018, 0.22051345035393066, -1.4627319316490892, 0.8347945436884148, -0.8971009992761966, -1.170283489865392, -1.0019387221323546, -0.08964348874995187, -0.5724975716371203, -1.2878821629219146, 1.1178880039271992, -0.5503596115793713, -1.951112623865079, -0.5419634593995096, 0.4472563488434145, 1.9922032429449317, 0.5037250335129161, 0.195605702389426, -0.3881842164405492, 2.404520842330919, 0.2855965976422532, -0.4515607490678025, 0.2964036793247566, 0.04713143330737425, 1.0586333698059718, 0.08488222715506262, 1.492498342691408, -1.133731285710006, 0.035415781531959255, 1.4650912611912148, 0.2226680648634332, -0.5479897434771057, -2.648561744879203, -0.8511286215279356, -0.8405272433710286, 0.1202260489679309, -0.8020600956036661, -0.41234054539079373, -0.19179246277506234, 1.3783456484057093, 0.7281957447405274, -0.24824599247669568, 0.29446779195968775, 0.006383127051536669, 0.7552754873722418, -0.7939073823146617, 1.2188482997553107, -0.5183416294399157, -1.5220779026059656, -0.5443544062367778, -1.9097491709648244, 1.433152492716467, -0.8740335442932134, 0.05628708225818965, 0.772139367284135, -1.084134717405334, -1.4430886508715215, 0.6419372564098984, 1.0544621490125694, 0.4487752296058966, 1.6006346088168586, -1.060579642784544, 0.4980444558069317, -0.2650817910778921, 0.058100887233799345, 1.636324821626602, 1.24253145842572, -0.09931440489731251, -1.9111103398463931, -1.906910401559174, -1.675550786922024, 0.9096903213008721, 0.9542133843029129, -0.21536992366778612, 2.122109472489785, -1.7320017789020972, 0.5797134072021578, 0.24334837869750953, 0.6131451059651712, 0.45932240470369246, -1.0362534425876893, -0.1871496258547672, -1.179008457806342, -0.1637725256706383, 0.38508444973477785, -0.1061548731196631, 0.15076583463805662, -1.498220977317099, -2.1384671959131714, 1.7361885378488666, 1.122610587197387, -1.0398676907070823, 0.3185976403357673, 0.7758408578324104, -0.012108284321721233, -0.7599921273289602, 1.2362020658585804, 1.293014612066788, -0.6706350952326618, 0.2921319476241647, -0.3318984187481125, -0.6701730182281134, 1.0377691701937513, 0.049941014463306996, 1.10586839768067, -0.370987636116632, -2.3913777950479886, -1.654640624694992, -0.7255988274576781, 0.8618797002814699, -0.963365719805698, -0.9254278940410448, 0.8431783524917419, -0.8223314794795583, -0.13434550481987062, -0.4546231380961033, -0.8589006439726423, 1.1836553412028483, 0.26321214392971254, -1.8539102058217052, -1.1619398806147516, -2.1328508518190676, -1.0415724562593536, -0.6548126932508781, -0.054192217478959116, -0.29332155149551115, -1.6646265248673848, -1.5271925554839856, 0.7536257241198109, -0.4896228853318508, -0.33639287202851875, 0.4655116154851714, -0.2836574745181192, -0.8648750220870588, -0.48517280257779966, -1.457446338802455, -1.7816072894967891, 0.7927084289574708, -0.23806823861492413, 0.9724205441734011, -0.16964584124301407, -0.5604421810118067, 0.6617457919498896, 1.2282628800354367, 0.12463963115122283, -0.5801042016643339, 0.4013380176820527, 0.4419023997574305, -0.9490809583312878, 0.17453047873035585, -0.10039203465012063, -0.977338186205831, 1.0476980701739251, 0.1457551237732184, 0.01947498379169187, -0.615949362116502, 0.21300473165252298, -0.42076935041205693, 0.2034309646040267, 0.1548617840966996, -0.793575891169879, 0.956106345368566, -2.0386366921750874, -0.1666168990192804, 0.2887512242032153, 1.741208420818351, 1.5039618473324496, -0.6792359597832713, -0.305420737424007, -1.2739920883065203, 0.607564747074042, 0.09918483437777043, 0.6674887712584309, -1.7665740477474876, 1.275082383066766, 1.4184588781713812, -0.2966040780869708, 0.26629911116693683, 0.5591126194607342, -0.07825738540941737, -0.8645027759220082, -0.8189952777106766, 0.698705481017343, -0.16375867811666078, -0.15087138564410268, -0.9019003102646699, -2.9474318741125827, -0.008438643782114352, -1.25998618522053, -0.1376862783100488, -0.2884674756393597, 0.8823458344157336, 1.2244106628268132, -1.1995759214478994, 1.660530008361601, 0.8856381043757492, -0.9281943974047363, 0.31121074437785085, -0.19287216779451855, -1.228836824865498, -0.9683441811852437, -0.18137110372677812, 1.0351533447803485, -0.5474859268652391, 0.09249168051180964, -1.79482633390146, 0.9112012294405171, -0.24086241466920982, -0.1791114896045578, 0.1730676043811445, -0.718161777747106, -0.4701306769338805, -0.6868649986653395, 1.4333727640910576, -0.4249344666547887, -0.3222494270569374, -0.46159426611462817, -0.35797720585329423, -0.07428563978262047, 2.0245341415166123, 1.7187675462416976, 0.14545981873549305, 0.6965000894068241, -0.8255332949851757, 0.4969524612790628, -0.32054222081789796, 1.3254344455152234, -0.28214318725663384, -1.4120620880513173, 0.26086929476184856, 0.8623343115049207, 0.08053899216268935, 0.24054654842867523, -0.9966084931521122, -0.5150984672294989, -0.03899464220577256, -0.11833504072556535, 1.4008746626963102, 0.2008590421620452, 0.5259464012212505, 0.3173506439091299, 0.03512900885960893, 0.20362193402027912, 0.34322948200936426, -0.8049167232987151, -1.4966835158578082, 0.2036231627022751, 0.5972381550388801, 0.15900588851831743, -0.4850484694100145, 1.779832146267093, -1.1209039342479599, -1.878637166586879, -1.1437872054942322, -0.5568064531531779, -0.7538408765631904, 0.41624289001287745, -0.28590137373934044, 0.5697199256855308, -2.418202391524497, -1.0867536274925635, -2.065544598041684, 0.04299665551347401, -0.4167250823617038, -0.46362552755049585, 1.498361866913014, -0.43469004106599546, -1.5181022861890154, -0.7450641004795631, 0.4647578279431554, -0.12649716180869047, 0.562953576412565, -0.04735435083006487, -0.8266238757286254, -1.8836503970124021, 0.45290013893539266, 0.918261025348683, 0.2943823760785917, -0.007641942603227913, -0.3953276691282462, -0.08375593719038261, -0.5014196140501334, 0.30417267502537837, -0.1550020439738742, 0.3466229484321476, -1.045563804923461, -0.5026170713041089, 1.6579760316803458, 1.419567754595283, -1.1965185461590462, 1.1657544153003447, -1.788546881495926, 1.5632893847156304, -2.4969090488679546, 1.9640173965217065, -0.792979218962314, -2.5124949872370173, -0.5619661719638361, 0.6473440128378352, -0.2661663393607646, -0.758050277446484, -0.9193202184755516, -1.1612797082763042, -0.24212329573891192, 1.8917557362586002, 0.20191743306435267, -1.154498452696682, -0.21741130090115862, -1.0846493851403682, -1.4836817372651412, -1.7384807743410253, -0.0007113256889554979, 0.8565536893498007, 0.7719558698508879, 0.07508242260603551, 1.3387854533828214, 0.005006179753777898, -0.7680718134388025, -0.33230840583641097, -0.5857412641284333, 0.5050117746553351, -0.24800669116416293, 0.9446901694757768, 1.7247831552768975, 0.9036013223037328], [0.09448238408473766, 0.6339315048779356, -1.2111046885879742, 0.2109763914692188, 0.7920681400955677, 0.6137940459759558, -2.6377266563174384, 1.6931687941582774, 0.47900612823601346, -0.14388531321591974, 2.038735314010744, -0.3578330741527217, -0.5935067114553193, 1.8544863166642602, -2.0037836261146977, 0.10675260634880074, -2.2507325599295958, -0.16580069804177475, 0.2879874106980686, -1.1346061300612071, -0.6275906004565726, 0.5771436262752138, -1.0061011976283813, 0.6901205354436577, -0.13074437965527025, 2.218497794364604, -3.058603989041848, -1.1661440174245497, 0.2720881885909193, 1.2620881552236427, -1.6853428380097235, -0.9236651945230748, -1.8399555370127316, -1.031868328894168, 0.7243141435495528, -1.0923159405478804, -0.6782055367428794, -1.0660982410384487, 0.1590376834315259, -0.6461927992003655, 0.7742605780809108, -0.05614574219276691, 0.2276920606121212, -0.06660700854511688, 0.41781916109461265, 1.1833682513105492, 0.8858523583216992, -1.5286993060731753, 0.7029473987348819, -0.7868312069211121, -1.3706768747240137, -0.5014432058255228, 0.31549180571927016, -1.330361416115554, 0.12389067872246709, -0.5425419199338809, -0.967935880686758, -0.4740875981530149, 1.1065798009520154, -0.20420191611939267, 0.43368705853130124, 1.6299124492541537, 0.34923162469848673, -1.102376079933158, 0.43518058805085424, 1.7093355470959706, -0.06945107821639866, -0.1613173819858048, 0.3505869540184174, -2.8944903138039377, -0.5350274270859317, 1.4835577594856373, 0.11547545110786357, 1.00454166809281, 0.3421114451320348, 1.6918895216606755, 1.185666260097662, -1.517683617281598, 1.3354195111199305, 0.35898709611980434, -0.11114942584158526, -0.06827208243973489, -1.7380198940351044, -0.29300136579819064, 0.014754817485750901, -0.26913363597883744, -0.008935075964546799, -0.09965990171894899, 2.224198039508776, -0.694264813278895, 1.8641417636198199, -0.281467602611567, -0.06797536864896513, 0.33533270998332293, -0.8680988103828571, -0.05089921334824811, 1.3576428725088105, 2.1012980541547033, 1.14849324857668, -0.321292554903911, 1.6596646141622267, 0.5237721438484244, 1.1264808004917286, -0.6454054534957103, -1.5823453524387476, -0.6361618123112717, 0.9021148397739975, 0.9485075828039587, -0.9941964216613897, 0.6019054755754392, 0.8565572407020935, -0.5019611649553071, -1.4565833879986505, -0.17827784017276305, -0.05877164932279096, -0.06836688257137324, 0.337604642854281, -0.6599326455622131, -0.96872335975112, -1.220240020256653, 1.0992951015221597, 0.12889036323293193, -1.352348025381757, 0.41974797202167735, -0.5933020384621933, 0.22757704808704374, 0.40120652070512614, 0.35688925797324905, -0.4899547322630096, -2.517629354681542, -0.7093817752508856, -1.9028692003835834, -0.30256897019412693, -0.08062361880080883, -0.39552050489540497, 0.46470091864876506, 